SVM-light Version V6.20
2 # kernel type
3 # kernel parameter -d 
3.3 # kernel parameter -g 
1 # kernel parameter -s 
1 # kernel parameter -r 
empty# kernel parameter -u 
36 # highest feature index 
92 # number of training documents 
3001 # number of support vectors plus 1 
0 # threshold b, each following line is a SV (starting with alpha*y)
27.539505443654675787001906428486 2:-1.33 3:0.12 5:-1.33 6:0.30000001 7:-0.0011252982 8:-1.1318711 9:0.34190807 10:-0.0022506015 11:-0.93374395 12:0.38381618 13:8.9296205e-05 14:-0.75849038 15:0.41048974 16:-0.0048670946 17:-0.40186533 18:0.458882 21:0.17 24:0.34 25:-0.0012160498 26:-0.17826954 27:0.38715464 28:-0.0024321123 29:-0.35653913 30:0.43430841 31:-0.0019124977 32:-0.49346524 33:0.45931983 34:-0.0037619299 35:-0.71522701 36:0.48588362 #
-24.199336943797504773101536557078 2:-1.33 3:0.12 5:-1.33 6:0.30000001 7:0.0030552417 8:-1.2073867 9:0.42077163 10:0.0061104791 11:-1.0847728 12:0.54154378 13:0.006109314 14:-0.97593856 15:0.60579026 16:0.011989892 17:-0.83519763 18:0.68113023 21:0.17 24:0.34 25:0.0020042076 26:-0.13983499 27:0.4222624 28:0.0040084231 29:-0.27966994 30:0.50452423 31:0.004217478 32:-0.40737721 33:0.55646044 34:0.0088891713 35:-0.66057873 36:0.63570601 #
34.099638978687337953488167840987 2:-1.33 3:0.12 5:-1.33 6:0.30000001 7:0.0052005686 8:-1.2387173 9:0.48188305 10:0.010401137 11:-1.1474295 12:0.66376692 13:0.020263411 14:-1.0575714 15:0.72860396 16:0.028235018 17:-0.98142278 18:0.74867618 21:0.17 24:0.34 25:0.003571708 26:-0.18481164 27:0.38321221 28:0.0071434304 29:-0.36962304 30:0.42642355 31:0.0095673054 32:-0.56682378 33:0.46902686 34:0.017536504 35:-1.110235 36:0.60002047 #
13.394622154582307871351076755673 2:-1.33 3:0.12 5:-1.33 6:0.30000001 7:-0.013916164 8:-1.3522428 9:0.49421898 10:-0.027832292 11:-1.3744867 12:0.68843806 13:-0.051808707 14:-1.3494781 15:0.83005965 16:-0.078405514 17:-1.2762431 18:1.0336466 21:0.17 24:0.34 25:-0.002465691 26:-0.18848249 27:0.37391797 28:-0.0049313931 29:-0.37696463 30:0.40783498 31:-0.008772661 32:-0.56246811 33:0.43657333 34:-0.017651562 35:-1.0463715 36:0.51080692 #
-18.458135446956880798552447231486 2:-1.33 3:0.12 5:-1.33 6:0.30000001 7:-0.0085403668 8:-1.2123306 9:0.44979629 10:-0.017080743 11:-1.0946584 12:0.59959334 13:-0.028124696 14:-0.9377138 15:0.68102473 16:-0.041866437 17:-0.55703336 18:0.86427623 21:0.17 24:0.34 25:-0.0065616155 26:-0.084344991 27:0.51001585 28:-0.013123225 29:-0.1686895 30:0.68003172 31:-0.012951923 32:-0.29221046 33:0.76334053 34:-0.035055883 35:-0.54079795 36:0.87314939 #
-1.1524193758992491432024962705327 2:-1.33 3:0.12 5:-1.33 6:0.30000001 7:0.12792136 8:-1.2810524 9:0.41682729 10:0.25584239 11:-1.2321022 12:0.53365505 13:0.3693161 14:-1.1723331 15:0.59697366 16:0.52023226 17:-1.0660044 18:0.66707361 21:0.17 24:0.34 25:0.011537367 26:-0.18475921 27:0.37607107 28:0.023074787 29:-0.36951798 30:0.41214123 31:0.030618129 32:-0.56340486 33:0.45324448 34:0.046437748 35:-1.0916581 36:0.57118475 #
-41.381410041846891090244753286242 2:-1.33 3:0.12 5:-1.33 6:0.30000001 7:-0.025746344 8:-1.1401538 9:0.33427042 10:-0.051492605 11:-0.95031142 12:0.36854085 13:-0.066413678 14:-0.78045344 15:0.39703491 16:-0.095252194 17:-0.40331495 18:0.46391511 21:0.17 24:0.34 25:-0.033170819 26:-0.053515725 27:0.48662487 28:-0.066341706 29:-0.10703143 30:0.63324958 31:-0.092635065 32:-0.17765813 33:0.70998067 34:-0.12851036 35:-0.24775471 36:0.75606143 #
-24.420692379413587502767768455669 2:-1.33 3:0.12 5:-1.33 6:0.30000001 7:0.10238108 8:-1.1733993 9:0.35062927 10:0.20476189 11:-1.016801 12:0.40125862 13:0.27755025 14:-0.90175635 15:0.43863967 16:0.35321739 17:-0.73820382 18:0.48060507 21:0.17 24:0.34 25:0.07045643 26:-0.14773312 27:0.4005672 28:0.14091314 29:-0.29546669 30:0.46113369 31:0.20017073 32:-0.4248558 33:0.48921895 34:0.3097465 35:-0.67829943 36:0.50908697 #
21.730107222244299691737978719175 2:-1.33 3:0.12 5:-1.33 6:0.30000001 7:-0.073338702 8:-1.1576333 9:0.34701452 10:-0.14667715 11:-0.98526967 12:0.39402908 13:-0.19730833 14:-0.84057343 15:0.43051586 16:-0.29059452 17:-0.56847543 18:0.49258932 21:0.17 24:0.34 25:-0.088677801 26:-0.15503515 27:0.38903829 28:-0.17735595 29:-0.31007081 30:0.43807578 31:-0.24483529 32:-0.42893046 33:0.47195417 34:-0.35372373 35:-0.61580551 36:0.51858652 #
-14.13878437588257952484127599746 2:-1.33 3:0.12 5:-1.33 6:0.30000001 7:-0.11227659 8:-1.2243122 9:0.39491421 10:-0.22455296 11:-1.1186228 12:0.4898288 13:-0.3157011 14:-1.0411422 15:0.54359454 16:-0.41931367 17:-0.96783489 18:0.59533644 21:0.17 24:0.34 25:-0.027759809 26:-0.17669967 27:0.37664291 28:-0.055519737 29:-0.35339928 30:0.41328499 31:-0.079527356 32:-0.51967561 33:0.44873914 34:-0.12520252 35:-0.9403618 36:0.54476601 #
-12.388404790173424885324493516237 2:-1.33 3:0.12 5:-1.33 6:0.30000001 7:0.014185387 8:-1.1297239 9:0.33464834 10:0.028370706 11:-0.92945075 12:0.36929664 13:0.050337829 14:-0.74837601 15:0.42272866 16:0.10950431 17:-0.298179 18:0.56357777 21:0.17 24:0.34 25:0.061632439 26:-0.12747627 27:0.46064726 28:0.12326498 29:-0.25495237 30:0.58129418 31:0.17995256 32:-0.33659643 33:0.66025752 34:0.24143673 35:-0.38444579 36:0.72572803 #
-24.397819046624814376400536275469 2:-1.33 3:0.12 5:-1.33 6:0.30000001 7:0.058309078 8:-1.1935468 9:0.40539825 10:0.11661802 11:-1.0570935 12:0.51079702 13:0.16584459 14:-0.9227311 15:0.56115323 16:0.25154668 17:-0.66189241 18:0.63859046 21:0.17 24:0.34 25:0.095947683 26:-0.068859607 27:0.45346436 28:0.19189556 29:-0.13771945 30:0.56692833 31:0.25972906 32:-0.22375911 33:0.63497579 34:0.35333833 35:-0.37267652 36:0.72875172 #
-16.978476007678743542328447801992 2:-1.33 3:0.12 5:-1.33 6:0.30000001 7:0.058315806 8:-1.1404476 9:0.33862668 10:0.11663139 11:-0.95090008 12:0.37725344 13:0.16655649 14:-0.82735336 15:0.42224428 16:0.24063274 17:-0.74608219 18:0.507505 21:0.17 24:0.34 25:-0.042159081 26:-0.192526 27:0.35244265 28:-0.084318288 29:-0.38505203 30:0.36488441 31:-0.11221378 32:-0.50667685 33:0.44570076 34:-0.17574237 35:-0.67677784 36:0.63351822 #
-6.4413540485995737228108737326693 2:-1.33 3:0.12 5:-1.33 6:0.30000001 7:0.033085287 8:-1.2023011 9:0.43313435 10:0.066170588 11:-1.0745997 12:0.56626928 13:0.078567959 14:-1.0137202 15:0.66348797 16:0.08672335 17:-1.0079988 18:0.73793995 21:0.17 24:0.34 25:-0.19190679 26:-0.12304785 27:0.41041777 28:-0.38381419 29:-0.24609606 30:0.4808349 31:-0.29507408 32:-0.43051648 33:0.53978956 34:0.055375066 35:-0.98321515 36:0.70392799 #
-42.448989640162039904680568724871 2:-1.33 3:0.12 5:-1.33 6:0.30000001 7:0.04431393 8:-1.1418159 9:0.36004901 10:0.088627748 11:-0.95363206 12:0.42009816 13:0.089833699 14:-0.77173918 15:0.50255483 16:0.068222381 17:-0.29258171 18:0.70365494 21:0.17 24:0.34 25:-0.011133828 26:-0.1251017 27:0.50014526 28:-0.022267649 29:-0.25020272 30:0.66029048 31:-0.057905108 32:-0.31899482 33:0.78254133 34:-0.11990076 35:-0.36984083 36:0.98242313 #
-19.913725361041837658149233902805 2:-1.33 3:0.12 5:-1.33 6:0.30000001 7:0.087839194 8:-1.2271284 9:0.46102634 10:0.17567831 11:-1.1242501 12:0.62205362 13:0.2370303 14:-1.0064578 15:0.71070647 16:0.33373702 17:-0.79808539 18:0.8174867 21:0.17 24:0.34 25:-0.0045921747 26:-0.11425865 27:0.49329647 28:-0.0091844322 29:-0.22851683 30:0.64659292 31:0.061260682 32:-0.37388441 33:0.70143801 34:0.24505129 35:-0.74890685 36:0.79604626 #
-23.877044667134057931434654165059 2:-1.33 3:0.12 5:-1.33 6:0.30000001 7:-0.01512973 8:-1.2240065 9:0.45663044 10:-0.030259499 11:-1.1180102 12:0.61326158 13:-0.069774859 14:-1.0082272 15:0.70358008 16:-0.15215084 17:-0.81787789 18:0.83724874 21:0.17 24:0.34 25:-0.12174346 26:-0.12859833 27:0.37824154 28:-0.24348716 29:-0.25719756 30:0.4164823 31:-0.28649095 32:-0.39457652 33:0.48714966 34:-0.32570851 35:-0.73112667 36:0.64734542 #
-11.089538612666242300974772660993 2:-1.33 3:0.12 5:-1.33 6:0.30000001 7:-0.065134488 8:-1.1497642 9:0.31266117 10:-0.13026866 11:-0.96953422 12:0.32532224 13:-0.19430205 14:-0.8548134 15:0.35489723 16:-0.27790788 17:-0.75876874 18:0.40384367 21:0.17 24:0.34 25:0.017978204 26:-0.17559916 27:0.37306246 28:0.035956502 29:-0.35119835 30:0.40612403 31:0.066857524 32:-0.506181 33:0.45693457 34:0.17077591 35:-0.88044447 36:0.59147805 #
1.2662393206617330587704373101587 2:-1.33 3:0.12 5:-1.33 6:0.30000001 7:-0.016352246 8:-1.1444554 9:0.33911166 10:-0.032704443 11:-0.95891428 12:0.37822333 13:-0.047401521 14:-0.80105078 15:0.39347169 16:-0.062331676 17:-0.47654632 18:0.41527587 21:0.17 24:0.34 25:-0.12531617 26:-0.07442034 27:0.43630275 28:-0.2506327 29:-0.14884079 30:0.53260505 31:-0.36282992 32:-0.20250326 33:0.59218144 34:-0.57158613 35:-0.25869232 36:0.6524111 #
4.0318939917673688455579394940287 2:-1.33 3:0.12 5:-1.33 6:0.30000001 7:-0.029832048 8:-1.1207262 9:0.34654096 10:-0.059664112 11:-0.9114548 12:0.39308202 13:-0.076776356 14:-0.81817055 15:0.44852 16:-0.082009532 17:-0.95338362 18:0.48225835 21:0.17 24:0.34 25:-0.019137831 26:-0.18717827 27:0.37631309 28:-0.038275845 29:-0.3743566 30:0.41262528 31:-0.067946672 32:-0.54903686 33:0.41227904 34:-0.16455802 35:-0.95066184 36:0.42109066 #
-12.029101166073623119245894486085 2:-1.33 3:0.12 5:-1.33 6:0.30000001 7:-0.13487118 8:-1.3357264 9:0.44850528 10:-0.26974189 11:-1.3414514 12:0.59701115 13:-0.42347923 14:-1.3273749 15:0.63513094 16:-0.56600189 17:-1.3284426 18:0.62916327 21:0.17 24:0.34 25:-0.033120289 26:-0.1721222 27:0.36633915 28:-0.066240735 29:-0.3442443 30:0.39267728 31:-0.10330994 32:-0.54983872 33:0.4410232 34:-0.20862897 35:-1.1293041 36:0.59803808 #
10.104148876477621499248016334604 2:-1.33 3:0.12 5:-1.33 6:0.30000001 7:-0.07885626 8:-1.1826751 9:0.39360911 10:-0.15771228 11:-1.0353512 12:0.48721862 13:-0.21049204 14:-0.87751091 15:0.55570704 16:-0.3363553 17:-0.50970966 18:0.70065033 21:0.17 24:0.34 25:-0.081004426 26:-0.028455205 27:0.51984334 28:-0.16200891 29:-0.056910399 30:0.69968677 31:-0.24600421 32:-0.13572417 33:0.79906696 34:-0.373905 35:-0.31816316 36:0.9147504 #
15.927688196557957311938480415847 2:-1.33 3:0.12 5:-1.33 6:0.30000001 7:-0.009558659 8:-1.2611581 9:0.47578213 10:-0.019117296 11:-1.192314 12:0.65156478 13:0.011161391 14:-1.1248513 15:0.66248786 16:0.012823927 17:-1.1742777 18:0.42987472 21:0.17 24:0.34 25:-0.0022771969 26:-0.1773048 27:0.35161254 28:-0.0045543797 29:-0.35460991 30:0.36322421 31:-0.015130658 32:-0.48082456 33:0.37878296 34:-0.014810124 35:-0.73944151 36:0.3998678 #
-2.9167487047998088556255424919073 2:-1.33 3:0.12 5:-1.33 6:0.30000001 7:-0.030974427 8:-1.1895139 9:0.42428505 10:-0.061948836 11:-1.0490258 12:0.54857063 13:-0.075545989 14:-0.94134676 15:0.69907624 16:-0.10410681 17:-0.68546152 18:1.0596132 21:0.17 24:0.34 25:-0.023073953 26:-0.1622166 27:0.41381973 28:-0.046147969 29:-0.32443333 30:0.48763877 31:-0.019382833 32:-0.50702542 33:0.52243179 34:0.042070389 35:-1.0143528 36:0.6170314 #
26.950836565416910417525286902674 2:-1.33 3:0.12 5:-1.33 6:0.30000001 7:0.044629212 8:-1.1700201 9:0.3846792 10:0.08925835 11:-1.0100416 12:0.46935889 13:0.14202116 14:-0.90673906 15:0.52764398 16:0.18854566 17:-0.81429046 18:0.65077776 21:0.17 24:0.34 25:0.033473808 26:-0.20021546 27:0.33957258 28:0.066947728 29:-0.40043068 30:0.3391442 31:0.084061049 32:-0.56116557 33:0.38242534 34:0.17935666 35:-0.91221225 36:0.52628428 #
-27.337078940246129832303267903626 2:-1.33 3:0.12 5:-1.33 6:0.30000001 7:-0.13418083 8:-1.1750599 9:0.31835401 10:-0.26836118 11:-1.020125 12:0.33670786 13:-0.38502008 14:-0.92470777 15:0.37378207 16:-0.548177 17:-0.82095367 18:0.42557132 21:0.17 24:0.34 25:-0.077101506 26:-0.17300633 27:0.35404998 28:-0.15420341 29:-0.34601304 30:0.368099 31:-0.22929654 32:-0.47181395 33:0.39994836 34:-0.35188252 35:-0.73878747 36:0.4956609 #
-19.985064736485966818690940272063 2:-1.33 3:0.12 5:-1.33 6:0.30000001 7:-0.0032858716 8:-1.3062586 9:0.49054384 10:-0.0065717888 11:-1.282517 12:0.68108833 13:0.050305173 14:-1.2325671 15:0.59393668 16:0.064799935 17:-1.2854934 18:0.35753074 21:0.17 24:0.34 25:-0.050265629 26:-0.17329606 27:0.40888375 28:-0.1005315 29:-0.34659165 30:0.47776678 31:-0.087592952 32:-0.54964113 33:0.50454801 34:-0.071066082 35:-1.0783727 36:0.56396139 #
12.320294637192590769814160012174 2:-1.33 3:0.12 5:-1.33 6:0.30000001 7:0.033113282 8:-1.157666 9:0.34495839 10:0.066226467 11:-0.98533541 12:0.38991684 13:0.081972711 14:-0.83242017 15:0.42122263 16:0.10201972 17:-0.51597512 18:0.47252223 21:0.17 24:0.34 25:0.016196964 26:-0.015683992 27:0.5391221 28:0.032393992 29:-0.031367619 30:0.73824424 31:0.078976288 32:-0.13704704 33:0.84099686 34:0.13615493 35:-0.30691546 36:0.94845426 #
-4.6643931303372063723600149387494 2:-1.33 3:0.12 5:-1.33 6:0.30000001 7:0.04226331 8:-1.324849 9:0.50907618 10:0.084526427 11:-1.3196973 12:0.71815276 13:0.18292211 14:-1.2705629 15:0.85795259 16:0.35201439 17:-1.2116321 18:1.0914875 21:0.17 24:0.34 25:0.0072305244 26:-0.19352905 27:0.37249884 28:0.014461081 29:-0.38705769 30:0.40499669 31:0.019603597 32:-0.57870758 33:0.43365633 34:0.030738199 35:-1.0885166 36:0.50602257 #
-17.487069124125863339713760069571 2:-1.33 3:0.12 5:-1.33 6:0.30000001 7:-0.15833363 8:-1.24834 9:0.38822138 10:-0.31666741 11:-1.1666729 12:0.47644326 13:-0.432704 14:-1.0707889 15:0.5471518 16:-0.61839604 17:-0.86945003 18:0.75650591 21:0.17 24:0.34 25:-0.078168616 26:-0.18014884 27:0.35553801 28:-0.15633774 29:-0.36029878 30:0.37107491 31:-0.22017853 32:-0.55432564 33:0.40396637 34:-0.40344507 35:-1.0849705 36:0.52509356 #
0.033803719766364509480283118136867 2:-1.33 3:0.12 5:-1.33 6:0.30000001 7:-0.21320391 8:-1.2647263 9:0.46496272 10:-0.42640841 11:-1.1994352 12:0.62992662 13:-0.49940386 14:-1.0924394 15:0.54844564 16:-0.43826589 17:-0.95476776 18:0.26667297 21:0.17 24:0.34 25:-0.11376179 26:-0.11926512 27:0.42285585 28:-0.22752406 29:-0.23853059 30:0.50571126 31:-0.26583678 32:-0.44174805 33:0.49143359 34:-0.34250879 35:-1.0290935 36:0.46560472 #
-20.521257094375396690111301722936 2:-1.33 3:0.12 5:-1.33 6:0.30000001 7:0.050808411 8:-1.1469724 9:0.32932934 10:0.10161667 11:-0.96394718 12:0.35865864 13:0.13100545 14:-0.82672375 15:0.38935778 16:0.12488814 17:-0.65869349 18:0.45235097 21:0.17 24:0.34 25:-0.052055839 26:-0.054211073 27:0.48910531 28:-0.10411183 29:-0.10842203 30:0.63821048 31:-0.069357552 32:-0.27159715 33:0.59058952 34:0.10818572 35:-0.60098225 36:0.40744877 #
-13.578123338570263101132695737761 2:-1.33 3:0.12 5:-1.33 6:0.30000001 7:-0.024075598 8:-1.183423 9:0.40135118 10:-0.048151132 11:-1.0368439 12:0.50270289 13:-0.083937354 14:-0.92279506 15:0.53653836 16:-0.08564011 17:-0.81503052 18:0.4924328 21:0.17 24:0.34 25:-0.11765315 26:-0.087365352 27:0.46750537 28:-0.2353065 29:-0.17473125 30:0.59501034 31:-0.25057995 32:-0.33097178 33:0.60543984 34:-0.29091302 35:-0.70878536 36:0.47772381 #
1.4910203402403492400907225601259 2:-1.33 3:0.12 5:-1.33 6:0.30000001 7:-0.18940273 8:-1.2290156 9:0.32379484 10:-0.37880516 11:-1.1280316 12:0.34758958 13:-0.47553229 14:-1.0326879 15:0.38633457 16:-0.61676019 17:-0.82979649 18:0.46238294 21:0.17 24:0.34 25:0.010201103 26:-0.19849344 27:0.39318022 28:0.020402236 29:-0.39698571 30:0.44635949 31:0.02413513 32:-0.59427512 33:0.46826553 34:0.022412293 35:-1.1102304 36:0.51490432 #
-3.8794590504975001721277294564061 2:-1.33 3:0.12 5:-1.33 6:0.30000001 7:-0.011992882 8:-1.2221001 9:0.47723091 10:-0.02398574 11:-1.1141961 12:0.6544627 13:-0.049138613 14:-0.96042633 15:0.72223783 16:-0.077592112 17:-0.66111046 18:0.78783506 21:0.17 24:0.34 25:0.0947152 26:-0.19459653 27:0.34406117 28:0.18943074 29:-0.38919348 30:0.34812132 31:0.19333114 32:-0.50138849 33:0.40019813 34:0.18628275 35:-0.59619939 36:0.50584859 #
-1.9659062978117458619919943885179 2:-1.33 3:0.12 5:-1.33 6:0.30000001 7:0.030822253 8:-1.1339543 9:0.32785672 10:0.061644398 11:-0.93791258 12:0.3557134 13:0.094780393 14:-0.75605243 15:0.37781122 16:0.16661465 17:-0.31118241 18:0.44349542 21:0.17 24:0.34 25:0.14584666 26:-0.029833576 27:0.43364215 28:0.29169381 29:-0.059667233 30:0.52728379 31:0.40880948 32:-0.076703437 33:0.57694507 34:0.58464831 35:-0.10751978 36:0.61281276 #
-3.0761856091844745897390112077119 2:-1.33 3:0.12 5:-1.33 6:0.30000001 7:0.0043956819 8:-1.1330029 9:0.32749155 10:0.0087913238 11:-0.93600911 12:0.35498309 13:0.030533103 14:-0.8620531 15:0.43324769 16:0.070407391 17:-0.89824408 18:0.51711708 21:0.17 24:0.34 25:0.04755459 26:-0.11384326 27:0.51282215 28:0.095109187 29:-0.22768565 30:0.68564439 31:0.12270976 32:-0.37422583 33:0.73658955 34:0.13424191 35:-0.72599506 36:0.76676238 #
-17.921796988375113812708150362596 2:-1.33 3:0.12 5:-1.33 6:0.30000001 7:-0.042271733 8:-1.1706682 9:0.36986977 10:-0.084543347 11:-1.0113381 12:0.43973979 13:-0.13706639 14:-0.88230562 15:0.45080933 16:-0.19560121 17:-0.64040446 18:0.44757491 21:0.17 24:0.34 25:-0.088376544 26:-0.17151171 27:0.33236757 28:-0.17675355 29:-0.34302416 30:0.32473418 31:-0.17426781 32:-0.39873073 33:0.45161057 34:-0.024403127 35:-0.24361373 36:0.66816097 #
-5.3208373656145493413305302965455 2:-1.33 3:0.12 5:-1.33 6:0.30000001 7:0.02192539 8:-1.1508013 9:0.36821333 10:0.043850724 11:-0.97160453 12:0.43642682 13:0.044144157 14:-0.77900702 15:0.4701142 16:0.045194551 17:-0.26972982 18:0.55221844 21:0.17 24:0.34 25:0.0091316197 26:0.02396067 27:0.53728342 28:0.018263273 29:0.047921404 30:0.73456687 31:0.00062387186 32:0.012350051 33:0.72482222 34:-0.037785087 35:-0.040968914 36:0.47202811 #
0.18150978740529022381622326065553 2:-1.33 3:0.12 5:-1.33 6:0.30000001 7:-0.044920385 8:-1.186009 9:0.44750345 10:-0.089840889 11:-1.0420126 12:0.59500784 13:-0.13166608 14:-0.99278659 15:0.72874993 16:-0.24577206 17:-0.9664309 18:1.0251915 21:0.17 24:0.34 25:-0.032360625 26:-0.13357635 27:0.43938228 28:-0.064721368 29:-0.26715246 30:0.53876412 31:-0.095276631 32:-0.45372421 33:0.64041203 34:-0.20678939 35:-0.96257764 36:0.92433119 #
-7.3800007321500622481380560202524 2:-1.33 3:0.12 5:-1.33 6:0.30000001 7:-0.10333171 8:-1.2623668 9:0.41624141 10:-0.20666303 11:-1.1947311 12:0.53248316 13:-0.29974276 14:-1.1352605 15:0.65478706 16:-0.45063394 17:-1.057363 18:0.8234452 21:0.17 24:0.34 25:-0.017220045 26:-0.094909154 27:0.48223481 28:-0.034440093 29:-0.18981813 30:0.62446946 31:-0.099499106 32:-0.33381635 33:0.6527248 34:-0.24880157 35:-0.72088933 36:0.7245 #
8.5727173644130179042122108512558 2:-1.33 3:0.12 5:-1.33 6:0.30000001 7:-0.067997374 8:-1.1419488 9:0.34359512 10:-0.13599439 11:-0.9539029 12:0.38719022 13:-0.19142415 14:-0.80985802 15:0.46148726 16:-0.30935523 17:-0.48209628 18:0.62474245 21:0.17 24:0.34 25:-0.022088049 26:-0.18536431 27:0.4043909 28:-0.044176169 29:-0.37072811 30:0.46878093 31:-0.073388577 32:-0.56119251 33:0.50023973 34:-0.17174661 35:-1.1636573 36:0.56765461 #
6.4670906908770859899959759786725 2:-1.33 3:0.12 5:-1.33 6:0.30000001 7:0.088056616 8:-1.1721627 9:0.36813191 10:0.17611299 11:-1.0143275 12:0.43626404 13:0.20492142 14:-0.84456664 15:0.43957475 16:0.24935447 17:-0.4715856 18:0.42958918 21:0.17 24:0.34 25:-0.0046243779 26:-0.17056106 27:0.39658803 28:-0.0092487019 29:-0.34112224 30:0.45317537 31:-0.0043840003 32:-0.37633485 33:0.53770787 34:-0.078950688 35:-0.20430823 36:0.54126978 #
12.064939609378811269380094017833 2:-1.33 3:0.12 5:-1.33 6:0.30000001 7:0.044456761 8:-1.2188029 9:0.43792513 10:0.088913523 11:-1.1076019 12:0.57585102 13:0.16031428 14:-1.042946 15:0.72284621 16:0.3407076 17:-0.9304471 18:1.0105466 21:0.17 24:0.34 25:-0.031000094 26:-0.1656141 27:0.41449079 28:-0.062000189 29:-0.33122802 30:0.48898083 31:-0.092867874 32:-0.47646552 33:0.53262013 34:-0.14716947 35:-0.86449271 36:0.60770631 #
-0.69675860343466589075234196570818 2:-1.33 3:0.12 5:-1.33 6:0.30000001 7:0.054017287 8:-1.2722772 9:0.46724564 10:0.1080346 11:-1.2145486 12:0.63449186 13:0.10934308 14:-1.022755 15:0.6193493 16:0.069195561 17:-0.53686816 18:0.53588438 21:0.17 24:0.34 25:0.0098321568 26:-0.16666143 27:0.32754424 28:0.019664325 29:-0.33332303 30:0.31508765 31:0.024472451 32:-0.49707577 33:0.37073544 34:-0.035728961 35:-0.54850745 36:0.57626277 #
3.9117839754777485872239140007878 2:-1.33 3:0.12 5:-1.33 6:0.30000001 7:-0.093611971 8:-1.2058283 9:0.41323707 10:-0.1872239 11:-1.0816535 12:0.52647465 13:-0.21380019 14:-0.91543728 15:0.61454177 16:-0.28280017 17:-0.51388448 18:0.84266746 21:0.17 24:0.34 25:-0.06187221 26:-0.070187651 27:0.50528377 28:-0.12374426 29:-0.1403752 30:0.67056757 31:-0.15590559 32:-0.31377745 33:0.73864585 34:-0.20533074 35:-0.68565226 36:0.78381413 #
-0.98410768852555763341882766326307 2:-1.33 3:0.12 5:-1.33 6:0.30000001 7:0.14215061 8:-1.1703914 9:0.33643723 10:0.28430068 11:-1.0107888 12:0.37287453 13:0.33258325 14:-0.84254235 15:0.37787485 16:0.37717608 17:-0.43325537 18:0.39049107 21:0.17 24:0.34 25:0.051165428 26:-0.12530236 27:0.45273471 28:0.10233116 29:-0.25060457 30:0.56546915 31:0.1986772 32:-0.32457876 33:0.58709687 34:0.35453698 35:-0.44631642 36:0.54492122 #
-13.005952380306386118036243715324 2:-1.33 3:0.12 5:-1.33 6:0.30000001 7:0.0059210705 8:-1.1211128 9:0.30184531 10:0.011842129 11:-0.91223031 12:0.30369049 13:0.013847722 14:-0.77640474 15:0.33869261 16:-0.02965498 17:-0.62606543 18:0.449404 21:0.17 24:0.34 25:0.072556362 26:-0.15485211 27:0.36574885 28:0.14511314 29:-0.30970436 30:0.39149702 31:0.2179196 32:-0.32330459 33:0.47303075 34:0.2005412 35:-0.11274204 36:0.53497314 #
-9.1758413980975817025864671450108 2:-1.33 3:0.12 5:-1.33 6:0.30000001 7:-0.0086780554 8:-1.1259151 9:0.30840513 10:-0.017356128 11:-0.92183322 12:0.31681007 13:0.018195188 14:-0.7854954 15:0.35720548 16:0.11124252 17:-0.74312907 18:0.43101096 21:0.17 24:0.34 25:0.10876469 26:-0.16984284 27:0.35217488 28:0.21752974 29:-0.33968648 30:0.36434874 31:0.20541874 32:-0.49792734 33:0.38573694 34:0.052116469 35:-0.62473416 36:0.45248505 #
-1.971899920047891940910744779103 2:-1.33 3:0.12 5:-1.33 6:0.30000001 7:0.017200425 8:-1.3168044 9:0.52542394 10:0.034400795 11:-1.303605 12:0.75084853 13:0.050625373 14:-1.1107916 15:0.77751815 16:0.090516008 17:-0.63300061 18:0.77385265 21:0.17 24:0.34 25:-0.044721648 26:-0.11632451 27:0.5001846 28:-0.089443341 29:-0.23264846 30:0.66036898 31:-0.066890739 32:-0.3137162 33:0.73774469 34:0.051835917 35:-0.3241435 36:0.71322232 #
11.469116102263349432632821844891 2:-1.33 3:0.12 5:-1.33 6:0.30000001 7:-0.1236674 8:-1.2145987 9:0.41094938 10:-0.24733447 11:-1.0991945 12:0.52189946 13:-0.22317228 14:-1.0315455 15:0.58507794 16:0.010688415 17:-1.1265969 18:0.47355792 21:0.17 24:0.34 25:-0.11534254 26:-0.16588937 27:0.3492772 28:-0.2306854 29:-0.33177963 30:0.35855332 31:-0.27524617 32:-0.4556776 33:0.41134542 34:-0.32947424 35:-0.70528615 36:0.56989962 #
-17.81227806953656767063876031898 2:-1.33 3:0.12 5:-1.33 6:0.30000001 7:0.17078432 8:-1.2307365 9:0.30137086 10:0.34156838 11:-1.1314739 12:0.30274162 13:0.40205985 14:-1.0628037 15:0.32394448 16:0.40951103 17:-1.0345999 18:0.32370988 21:0.17 24:0.34 25:0.019288486 26:-0.19319853 27:0.37329984 28:0.038577076 29:-0.3863965 30:0.40659866 31:0.044953682 32:-0.56003892 33:0.42925036 34:0.038405523 35:-1.0127887 36:0.5072425 #
-19.114522813013515190050384262577 2:-1.33 3:0.12 5:-1.33 6:0.30000001 7:0.052918054 8:-1.3531778 9:0.52794182 10:0.105836 11:-1.3763552 12:0.75588393 13:0.17067418 14:-1.2092018 15:0.78917277 16:0.22163756 17:-0.87305772 18:0.61984658 21:0.17 24:0.34 25:0.053827617 26:-0.16841491 27:0.39609572 28:0.10765534 29:-0.3368296 30:0.45219061 31:0.10459461 32:-0.49536857 33:0.46081224 34:0.10920125 35:-0.91359162 36:0.51385474 #
-7.2636056396435142445966448576655 2:-1.33 3:0.12 5:-1.33 6:0.30000001 7:0.047088832 8:-1.1131595 9:0.28707883 10:0.094177403 11:-0.8963275 12:0.27415738 13:0.12958562 14:-0.77916372 15:0.34284848 16:0.15847939 17:-0.58195591 18:0.47647437 21:0.17 24:0.34 25:0.12791905 26:-0.14249237 27:0.36905751 28:0.25583866 29:-0.28498551 30:0.39811411 31:0.33850738 32:-0.40950289 33:0.46597943 34:0.56850475 35:-0.78038734 36:0.68309718 #
-31.800714565272055978084608796053 2:-1.33 3:0.12 5:-1.33 6:0.30000001 7:0.15440533 8:-1.2492739 9:0.38519868 10:0.30881068 11:-1.1685421 12:0.47039777 13:0.42512268 14:-1.0693611 15:0.49684393 16:0.61353415 17:-0.86142796 18:0.53842759 21:0.17 24:0.34 25:0.098424688 26:-0.17094463 27:0.36905679 28:0.19684991 29:-0.34189036 30:0.39811254 31:0.28410369 32:-0.52248394 33:0.4280014 34:0.52261156 35:-1.0261216 36:0.50813246 #
0.54435955806484448427084998911596 2:-1.33 3:0.12 5:-1.33 6:0.30000001 7:0.13943027 8:-1.1609083 9:0.34186852 10:0.27885997 11:-0.99182242 12:0.38373694 13:0.36432824 14:-0.86336732 15:0.44598001 16:0.56514281 17:-0.4807837 18:0.53467596 21:0.17 24:0.34 25:0.014637453 26:-0.18613014 27:0.39265019 28:0.029274976 29:-0.37225971 30:0.44529951 31:0.034753159 32:-0.54286647 33:0.47418556 34:-0.036248874 35:-1.004926 36:0.53176707 #
-4.410781470252652880503774213139 2:-1.33 3:0.12 5:-1.33 6:0.30000001 7:0.081061825 8:-1.1559557 9:0.3766332 10:0.16212341 11:-0.98191237 12:0.45326674 13:0.095982686 14:-0.95132053 15:0.52804846 16:-0.039309949 17:-1.1751848 18:0.50037086 21:0.17 24:0.34 25:0.029528407 26:-0.20261729 27:0.36767304 28:0.059057038 29:-0.40523463 30:0.39534509 31:0.12330364 32:-0.53303212 33:0.45260611 34:0.32374927 35:-0.74715394 36:0.61050826 #
-8.1897561072247704316851013572887 2:-1.33 3:0.12 5:-1.33 6:0.30000001 7:0.11999834 8:-1.1754687 9:0.33094496 10:0.23999621 11:-1.0209419 12:0.36188984 13:0.36076137 14:-0.92472786 15:0.41760674 16:0.60061646 17:-0.71596998 18:0.51026773 21:0.17 24:0.34 25:0.15675387 26:-0.12753841 27:0.34945855 28:0.31350809 29:-0.25507763 30:0.35891607 31:0.41546851 32:-0.34327272 33:0.39335686 34:0.52543622 35:-0.45254689 36:0.48136425 #
-5.6536211271860352667317783925682 2:-1.33 3:0.12 5:-1.33 6:0.30000001 7:0.00046969479 8:-1.1110326 9:0.32958707 10:0.00093938835 11:-0.89206731 12:0.35917401 13:-0.014522146 14:-0.68053532 15:0.40037259 16:-0.055440173 17:-0.12549105 18:0.50945491 21:0.17 24:0.34 25:-0.070037253 26:-0.11517889 27:0.48027384 28:-0.1400743 29:-0.23035768 30:0.62054759 31:-0.2604799 32:-0.19791371 33:0.72728121 34:-0.4293001 35:-0.10800965 36:0.91283703 #
-12.420661214445855691224096517544 2:-1.33 3:0.12 5:-1.33 6:0.30000001 7:0.033001006 8:-1.2546134 9:0.45669207 10:0.066002086 11:-1.1792212 12:0.61338484 13:0.15149397 14:-1.0808908 15:0.68070507 16:0.30655476 17:-0.95407796 18:0.84272927 21:0.17 24:0.34 25:0.1344689 26:-0.073719159 27:0.43149728 28:0.268938 29:-0.14743884 30:0.52299404 31:0.28023896 32:-0.34598541 33:0.58589303 34:0.27958214 35:-0.87987155 36:0.77488869 #
2.9392837006774414909671122586587 2:-1.33 3:0.12 5:-1.33 6:0.30000001 7:0.00017826553 8:-1.297911 9:0.49295154 10:0.00035652579 11:-1.2658218 12:0.68590337 13:-0.0057433625 14:-1.1710243 15:0.817276 16:-0.005468769 17:-1.0059195 18:0.94355321 21:0.17 24:0.34 25:0.022437315 26:-0.10089795 27:0.49774465 28:0.044874649 29:-0.20179544 30:0.65548921 31:0.062459264 32:-0.34820122 33:0.73914146 34:0.071414709 35:-0.72420114 36:0.97113824 #
-12.489385681900644797792665485758 2:-1.33 3:0.12 5:-1.33 6:0.30000001 7:-0.010903969 8:-1.233382 9:0.46692404 10:-0.021807985 11:-1.1367648 12:0.63384885 13:-0.042069137 14:-1.0083886 15:0.68441969 16:-0.006106602 17:-0.83125818 18:0.71505964 21:0.17 24:0.34 25:0.007917569 26:0.027833939 27:0.54631102 28:0.015835162 29:0.055667803 30:0.75262213 31:0.011338457 32:-0.16324534 33:0.74571609 34:-0.036560774 35:-0.78951061 36:0.69261253 #
3.4985895962860560359786177286878 2:-1.33 3:0.12 5:-1.33 6:0.30000001 7:-0.08972422 8:-1.2918701 9:0.48586026 10:-0.1794482 11:-1.2537349 12:0.6717214 13:-0.26789722 14:-1.1791282 15:0.78615266 16:-0.46506417 17:-0.98946029 18:1.0548199 21:0.17 24:0.34 25:0.01583329 26:-0.1896041 27:0.3625294 28:0.031666607 29:-0.37920788 30:0.38505787 31:0.012748518 32:-0.56796718 33:0.40159753 34:-0.031685803 35:-1.0545684 36:0.46055192 #
0.98101140146735321678761465591379 2:-1.33 3:0.12 5:-1.33 6:0.30000001 7:0.035269685 8:-1.2089753 9:0.45917228 10:0.070539325 11:-1.0879451 12:0.61834544 13:0.13048697 14:-1.0376347 15:0.71549469 16:0.23778528 17:-0.97451437 18:0.85267502 21:0.17 24:0.34 25:0.11858013 26:-0.14440951 27:0.33540267 28:0.23716071 29:-0.28882027 30:0.33080459 31:0.28067401 32:-0.45845541 33:0.33622625 34:0.32331988 35:-0.88271916 36:0.39001673 #
-1.8474636215457600485478906193748 2:-1.33 3:0.12 5:-1.33 6:0.30000001 7:-0.02718731 8:-1.1395504 9:0.34150574 10:-0.054374456 11:-0.94910461 12:0.38301155 13:-0.052117951 14:-0.79503268 15:0.4075866 16:-0.0027383463 17:-0.51016122 18:0.48068923 21:0.17 24:0.34 25:-0.016853174 26:-0.13689518 27:0.43710348 28:-0.03370652 29:-0.27379042 30:0.53420651 31:-0.12924634 32:-0.39741835 33:0.6420911 34:-0.38177338 35:-0.78822863 36:0.98830652 #
-7.2112942394813481783444331085775 2:-1.33 3:0.12 5:-1.33 6:0.30000001 7:0.014930631 8:-1.1272103 9:0.292813 10:0.029861113 11:-0.92442375 12:0.28562567 13:-0.0043952749 14:-0.73167461 15:0.35752344 16:-0.13976362 17:-0.26269075 18:0.51384729 21:0.17 24:0.34 25:-0.085979931 26:-0.11549905 27:0.4948743 28:-0.17195961 29:-0.23099737 30:0.64974856 31:-0.16705039 32:-0.35798529 33:0.69515252 34:-0.15911713 35:-0.72322381 36:0.79495502 #
0.36471716437580053993272599655029 2:-1.33 3:0.12 5:-1.33 6:0.30000001 7:0.062369432 8:-1.1441215 9:0.34177181 10:0.1247386 11:-0.9582473 12:0.38354358 13:0.1935083 14:-0.74919498 15:0.40056509 16:0.41165015 17:-0.24640192 18:0.46314394 21:0.17 24:0.34 25:0.14313497 26:-0.1347097 27:0.35140404 28:0.28627002 29:-0.26942027 30:0.36280692 31:0.4096669 32:-0.35695931 33:0.38872698 34:0.5747546 35:-0.47212338 36:0.44052255 #
-10.067888020821259331682995252777 2:-1.33 3:0.12 5:-1.33 6:0.30000001 7:0.097077049 8:-1.1898315 9:0.44650027 10:0.19415449 11:-1.0496534 12:0.59300143 13:0.2984423 14:-1.071986 15:0.64816314 16:0.30023596 17:-1.2327075 18:0.61110526 21:0.17 24:0.34 25:-0.074610941 26:-0.19522165 27:0.34626397 28:-0.14922228 29:-0.39044359 30:0.35252678 31:-0.096045233 32:-0.59011585 33:0.35674492 34:0.10893262 35:-1.1361554 36:0.34661528 #
8.7098371808154357864850680925883 2:-1.33 3:0.12 5:-1.33 6:0.30000001 7:-0.041073866 8:-1.2213691 9:0.50422847 10:-0.082147799 11:-1.112727 12:0.70845842 13:-0.13788585 14:-0.96376139 15:0.65169883 16:-0.11555353 17:-0.82145077 18:0.32882836 21:0.17 24:0.34 25:0.0023286904 26:-0.21206062 27:0.36523113 28:0.0046573696 29:-0.42412114 30:0.39046106 31:0.010760863 32:-0.58675247 33:0.47424278 34:0.12984617 35:-1.0684576 36:0.67624539 #
-11.604472523784309601069253403693 2:-1.33 3:0.12 5:-1.33 6:0.30000001 7:-0.14650667 8:-1.1779181 9:0.36608097 10:-0.29301307 11:-1.0258378 12:0.43216214 13:-0.28557727 14:-0.87570763 15:0.42741224 16:-0.18854532 17:-0.60761231 18:0.39508668 21:0.17 24:0.34 25:0.049196489 26:-0.1844641 27:0.44957325 28:0.098392978 29:-0.36892757 30:0.55914581 31:0.02890984 32:-0.47142518 33:0.57066751 34:-0.13555442 35:-0.56196839 36:0.51292312 #
19.30941761579488868960652325768 2:-1.33 3:0.12 5:-1.33 6:0.30000001 7:0.1162753 8:-1.1626261 9:0.2856392 10:0.23255026 11:-0.99525541 12:0.27127805 13:0.20488545 14:-0.86062348 15:0.33310851 16:0.0048951772 17:-0.70097017 18:0.4369055 21:0.17 24:0.34 25:-0.033146694 26:-0.18898585 27:0.36191186 28:-0.066293523 29:-0.3779718 30:0.38382268 31:-0.052409574 32:-0.50209135 33:0.43626943 34:0.20147093 35:-0.67132407 36:0.564089 #
13.492792188525333685333862376865 2:-1.33 3:0.12 5:-1.33 6:0.30000001 7:-0.076353669 8:-1.2761139 9:0.48714808 10:-0.15270738 11:-1.2222196 12:0.67429698 13:-0.15911599 14:-1.0484204 15:0.69274604 16:-0.11154392 17:-0.64035225 18:0.709351 21:0.17 24:0.34 25:-0.048795324 26:-0.18453151 27:0.39043427 28:-0.097590663 29:-0.36906254 30:0.44086787 31:-0.10849661 32:-0.48636442 33:0.55616772 34:-0.14057699 35:-0.71014714 36:0.91202229 #
-2.2375600254295755497935260791564 2:-1.33 3:0.12 5:-1.33 6:0.30000001 7:-0.017245319 8:-1.3013085 9:0.50355077 10:-0.034490611 11:-1.2726139 12:0.7071023 13:-0.15155859 14:-1.0739034 15:0.68155676 16:-0.36515486 17:-0.73386425 18:0.52502626 21:0.17 24:0.34 25:-0.011490554 26:-0.16587502 27:0.44654906 28:-0.022981204 29:-0.33174953 30:0.55309755 31:-0.077985734 32:-0.47277647 33:0.57483333 34:-0.20661485 35:-0.67755646 36:0.47446185 #
-4.8734962571482771664932442945428 2:-1.33 3:0.12 5:-1.33 6:0.30000001 7:-0.14516912 8:-1.2620074 9:0.42012554 10:-0.29033771 11:-1.1940082 12:0.54025185 13:-0.33789524 14:-1.1855712 15:0.69731694 16:-0.47618699 17:-1.1309303 18:1.1117234 21:0.17 24:0.34 25:-0.15273489 26:-0.18990785 27:0.33753666 28:-0.30547065 29:-0.37981644 30:0.33507225 31:-0.28389829 32:-0.54973876 33:0.40912539 34:-0.2015419 35:-0.97912079 36:0.60322356 #
20.307047395100759956676483852789 2:-1.33 3:0.12 5:-1.33 6:0.30000001 7:-0.012614989 8:-1.1878247 9:0.46363372 10:-0.025230275 11:-1.0456468 12:0.6272682 13:-0.13770097 14:-0.93497777 15:0.61496061 16:-0.30561316 17:-0.85518211 18:0.57113767 21:0.17 24:0.34 25:0.12578511 26:-0.1592508 27:0.35892195 28:0.25157061 29:-0.31850168 30:0.37784302 31:0.16934745 32:-0.50567442 33:0.39372638 34:-0.1052347 35:-0.95376968 36:0.48503667 #
-7.2200098592047581291808455716819 2:-1.33 3:0.12 5:-1.33 6:0.30000001 7:-0.049800783 8:-1.2524037 9:0.46312195 10:-0.09960153 11:-1.1748021 12:0.62624443 13:-0.1113402 14:-1.0394694 15:0.68524432 16:-0.085269317 17:-0.79708833 18:0.67684466 21:0.17 24:0.34 25:-0.036662564 26:-0.2045889 27:0.34647471 28:-0.073325589 29:-0.40917864 30:0.35294825 31:-0.16905834 32:-0.58403265 33:0.36936918 34:-0.44619396 35:-1.0344402 36:0.45593628 #
-9.2003200456545357610593782737851 2:-1.33 3:0.12 5:-1.33 6:0.30000001 7:0.025921758 8:-1.2233981 9:0.46444669 10:0.051843558 11:-1.1167916 12:0.62889421 13:0.10310611 14:-0.95549327 15:0.72255778 16:0.24708988 17:-0.51183045 18:0.97037399 21:0.17 24:0.34 25:0.0742549 26:-0.084176682 27:0.50862521 28:0.14850967 29:-0.16835302 30:0.67725044 31:0.20889062 32:-0.25496471 33:0.78105223 34:0.3020443 35:-0.42519051 36:1.0183793 #
-22.724143553705353326677141012624 2:-1.33 3:0.12 5:-1.33 6:0.30000001 7:-0.0726358 8:-1.1403581 9:0.31407747 10:-0.14527127 11:-0.95072186 12:0.3281548 13:-0.1698238 14:-0.82500446 15:0.38201225 16:-0.19362886 17:-0.68538761 18:0.51287073 21:0.17 24:0.34 25:0.015031604 26:-0.021217877 27:0.54133642 28:0.030063311 29:-0.042435437 30:0.74267316 31:-0.0086977463 32:-0.22331586 33:0.67251182 34:-0.1841636 35:-0.71372223 36:0.39141238 #
-0.29959378194783525817257441303809 2:-1.33 3:0.12 5:-1.33 6:0.30000001 7:0.0065962519 8:-1.3345506 9:0.49511412 10:0.013192596 11:-1.3391006 12:0.69022828 13:-0.10425384 14:-1.2758641 15:0.73091954 16:-0.2801539 17:-1.1997076 18:0.56116557 21:0.17 24:0.34 25:0.015702562 26:-0.20287278 27:0.36139846 28:0.03140524 29:-0.40574536 30:0.38279578 31:0.070712663 32:-0.61006773 33:0.40283269 34:0.17139404 35:-1.1821293 36:0.44339085 #
3.4605816192242788709165779437171 2:-1.33 3:0.12 5:-1.33 6:0.30000001 7:0.12332774 8:-1.2690488 9:0.44466928 10:0.246655 11:-1.2080944 12:0.58933932 13:0.37263283 14:-1.1762562 15:0.64358747 16:0.6185388 17:-1.109533 18:0.72258866 21:0.17 24:0.34 25:0.070773944 26:-0.1064828 27:0.43883112 28:0.1415481 29:-0.21296574 30:0.53766179 31:0.20368612 32:-0.34879425 33:0.5589456 34:0.37859493 35:-0.67826867 36:0.59430689 #
-11.966691957604952634142136957962 2:-1.33 3:0.12 5:-1.33 6:0.30000001 7:0.023399977 8:-1.3493536 9:0.51417851 10:0.046799976 11:-1.368708 12:0.72835732 13:-0.036907881 14:-1.2022834 15:0.7748999 16:-0.19209796 17:-0.8069551 18:0.80277258 21:0.17 24:0.34 25:-0.090898126 26:-0.074549921 27:0.50072479 28:-0.18179627 29:-0.14909938 30:0.66144955 31:-0.18363056 32:-0.34140384 33:0.712556 34:-0.20092879 35:-0.8329466 36:0.81111401 #
-1.9936910134943734984602770055062 2:-1.33 3:0.12 5:-1.33 6:0.30000001 7:0.0069341529 8:-1.155123 9:0.29163077 10:0.013868375 11:-0.98025024 12:0.28326139 13:0.11387216 14:-0.94945192 15:0.40026176 16:0.26713246 17:-1.1677312 18:0.51745093 21:0.17 24:0.34 25:0.069026299 26:-0.1034962 27:0.43375695 28:0.13805284 29:-0.20699291 30:0.52751344 31:0.17858846 32:-0.3790088 33:0.49781969 34:0.20653002 35:-0.91175061 36:0.39020944 #
-10.801674947042211982761727995239 2:-1.33 3:0.12 5:-1.33 6:0.30000001 7:-0.08193095 8:-1.1648017 9:0.35989901 10:-0.16386165 11:-0.99960566 12:0.41979817 13:-0.25732362 14:-0.82778382 15:0.44546565 16:-0.46467432 17:-0.4035615 18:0.51634073 21:0.17 24:0.34 25:-0.17009623 26:-0.066577427 27:0.36966461 28:-0.34019276 29:-0.13315532 30:0.39932835 31:-0.44363195 32:-0.17640227 33:0.44699746 34:-0.54052001 35:-0.24645428 36:0.54778785 #
-8.6026673003711824350148162920959 2:-1.33 3:0.12 5:-1.33 6:0.30000001 7:-0.022485685 8:-1.1409754 9:0.25685394 10:-0.044971053 11:-0.95195812 12:0.21370751 13:-0.091488808 14:-0.87709403 15:0.31892532 16:-0.090812609 17:-0.78018129 18:0.55283183 21:0.17 24:0.34 25:0.031270288 26:-0.16110782 27:0.37496981 28:0.062540554 29:-0.32221538 30:0.40993926 31:-0.035068113 32:-0.41262308 33:0.44212565 34:-0.30327445 35:-0.44477361 36:0.4095217 #
1.3986259959258520169100847851951 2:-1.33 3:0.12 5:-1.33 6:0.30000001 7:0.028671643 8:-1.3183585 9:0.51184547 10:0.057343312 11:-1.3067157 12:0.72369081 13:0.048506655 14:-1.1954321 15:0.88551176 16:0.036530618 17:-0.88991088 18:1.2840648 21:0.17 24:0.34 25:0.041299913 26:-0.16881779 27:0.38265416 28:0.082599945 29:-0.33763623 30:0.42530757 31:0.080535337 32:-0.50636226 33:0.5581755 34:0.12472484 35:-0.97402442 36:0.94200653 #
-1.4523539882502443099099309620215 2:-1.33 3:0.12 5:-1.33 6:0.30000001 7:0.019830655 8:-1.1583779 9:0.34533024 10:0.039661292 11:-0.98675966 12:0.39066055 13:0.091532223 14:-0.79201221 15:0.35085645 16:0.27087975 17:-0.38380203 18:0.30603203 21:0.17 24:0.34 25:0.060178023 26:-0.14299849 27:0.46242201 28:0.12035622 29:-0.28599626 30:0.58484381 31:0.074391112 32:-0.43261537 33:0.66135275 34:-0.063769452 35:-0.62076712 36:0.73589027 #
-9.9396462566269434546484262682498 2:-1.33 3:0.12 5:-1.33 6:0.30000001 7:0.094857462 8:-1.178378 9:0.35025328 10:0.18971457 11:-1.0267601 12:0.40050665 13:0.26370585 14:-0.87826169 15:0.4160147 16:0.43083763 17:-0.62446696 18:0.43111905 21:0.17 24:0.34 25:0.12758665 26:0.020672858 27:0.48448536 28:0.25517347 29:0.041345775 30:0.62897044 31:0.28435102 32:-0.14993356 33:0.57297307 34:0.27971014 35:-0.70417935 36:0.48130468 #
10.226738884868236567626809119247 2:-1.33 3:0.12 5:-1.33 6:0.30000001 7:0.003817765 8:-1.1341993 9:0.34846935 10:0.007635545 11:-0.93840015 12:0.39693871 13:-0.015569746 14:-0.74790651 15:0.413647 16:-0.1041889 17:-0.28847715 18:0.43779576 21:0.17 24:0.34 25:0.18229127 26:-0.047649458 27:0.36457184 28:0.36458305 29:-0.095298916 30:0.38914275 31:0.47331959 32:-0.17737846 33:0.40279815 34:0.78167486 35:-0.36738831 36:0.46381849 #
1.8506703791865271035987916548038 2:-1.33 3:0.12 5:-1.33 6:0.30000001 7:-0.040594734 8:-1.1206324 9:0.32864949 10:-0.081189342 11:-0.91126883 12:0.35729882 13:-0.067285746 14:-0.72064191 15:0.35255915 16:-0.01827951 17:-0.26311311 18:0.32612202 21:0.17 24:0.34 25:0.046656229 26:0.037205987 27:0.52658218 28:0.093312524 29:0.074412033 30:0.71316445 31:0.18825729 32:-0.034639128 33:0.73852503 34:0.29118446 35:-0.19009767 36:0.61502057 #
3.1820144028152856918723045964725 2:-1.33 3:0.12 5:-1.33 6:0.30000001 7:0.10895457 8:-1.1442103 9:0.33630207 10:0.21790864 11:-0.95842624 12:0.3726041 13:0.25345063 14:-0.78871709 15:0.47659585 16:0.33091849 17:-0.32904363 18:0.74088353 21:0.17 24:0.34 25:0.081777655 26:-0.14995405 27:0.40945739 28:0.16355565 29:-0.29990846 30:0.47891411 31:0.18188977 32:-0.3914355 33:0.60529542 34:0.14900507 35:-0.39607173 36:0.86166155 #
19.101205754944384551663461024873 2:-1.33 3:0.12 5:-1.33 6:0.30000001 7:-0.076827526 8:-1.1485261 9:0.33123147 10:-0.15365456 11:-0.9670583 12:0.36246294 13:-0.25920555 14:-0.80579805 15:0.40580383 16:-0.49434674 17:-0.47647652 18:0.50517994 21:0.17 24:0.34 25:-0.028909663 26:-0.11529652 27:0.46284956 28:-0.057819337 29:-0.23059277 30:0.58569884 31:-0.026390037 32:-0.34902465 33:0.63719499 34:0.084904954 35:-0.4987298 36:0.63555259 #
-5.1827150742696010965460118313786 2:-1.33 3:0.12 5:-1.33 6:0.30000001 7:-0.14615522 8:-1.1855012 9:0.32408121 10:-0.29230991 11:-1.0410079 12:0.34816238 13:-0.37482613 14:-0.92223418 15:0.3735033 16:-0.48762697 17:-0.72774965 18:0.46747068 21:0.17 24:0.34 25:-0.10618636 26:-0.067604482 27:0.46073231 28:-0.2123729 29:-0.13520929 30:0.58146423 31:-0.33844328 32:-0.24229603 33:0.582793 34:-0.6518544 35:-0.55783045 36:0.49153319 #
17.762103244263670376312802545726 2:-1.33 3:0.12 5:-1.33 6:0.30000001 7:0.026832301 8:-1.169582 9:0.37711331 10:0.053664543 11:-1.0091653 12:0.45422673 13:0.065279268 14:-0.82474828 15:0.4155134 16:0.087375715 17:-0.5039916 18:0.36404228 21:0.17 24:0.34 25:0.01102726 26:-0.19467518 27:0.35552028 28:0.022054706 29:-0.38935041 30:0.37103948 31:0.032201674 32:-0.62130725 33:0.39627802 34:0.047581062 35:-1.2177867 36:0.5051412 #
-6.9145564665803860293635807465762 2:-1.33 3:0.12 5:-1.33 6:0.30000001 7:0.096197493 8:-1.265343 9:0.44037136 10:0.19239511 11:-1.2006797 12:0.58074331 13:0.30055669 14:-1.129796 15:0.59940255 16:0.24966276 17:-1.2257605 18:0.50972724 21:0.17 24:0.34 25:0.076544613 26:-0.18757136 27:0.37977794 28:0.15308987 29:-0.37514374 30:0.41955495 31:0.22027248 32:-0.56966054 33:0.48111004 34:0.39974022 35:-1.0836444 36:0.63518018 #
16.458682361093700308174447854981 2:-1.33 3:0.12 5:-1.33 6:0.30000001 7:-0.044869021 8:-1.1731675 9:0.3876107 10:-0.08973787 11:-1.0163375 12:0.47522178 13:-0.0067348974 14:-0.83932287 15:0.47609404 16:0.14657776 17:-0.30501959 18:0.48942429 21:0.17 24:0.34 25:0.024072899 26:-0.1301178 27:0.35575765 28:0.048145916 29:-0.26023695 30:0.3715148 31:0.12261041 32:-0.43605119 33:0.38727975 34:0.22255231 35:-0.56586874 36:0.43145788 #
17.627112525383910934806408477016 2:-1.33 3:0.12 5:-1.33 6:0.30000001 7:-0.065242164 8:-1.1868486 9:0.37128729 10:-0.13048412 11:-1.0437009 12:0.44257462 13:-0.23292449 14:-1.0553876 15:0.53923261 16:-0.28096983 17:-1.1893551 18:0.58645397 21:0.17 24:0.34 25:-0.079126813 26:-0.16639106 27:0.39877409 28:-0.1582541 29:-0.33278328 30:0.45754722 31:-0.21429673 32:-0.53135294 33:0.50913525 34:-0.3979052 35:-1.1052963 36:0.56215215 #
6.0731988491965740450950761442073 2:-1.33 3:0.12 5:-1.33 6:0.30000001 7:-0.089523949 8:-1.1413485 9:0.30622771 10:-0.1790475 11:-0.9527036 12:0.31245527 13:-0.23659299 14:-0.77208537 15:0.37855434 16:-0.43254852 17:-0.27272943 18:0.58407956 21:0.17 24:0.34 25:-0.083151042 26:-0.12321511 27:0.4761824 28:-0.16630206 29:-0.24643029 30:0.61236447 31:-0.25682741 32:-0.33506256 33:0.64860862 34:-0.35147449 35:-0.28704008 36:0.63039428 #
12.606592245911519611922813055571 2:-1.33 3:0.12 5:-1.33 6:0.30000001 7:0.055376537 8:-1.123286 9:0.33660507 10:0.11075278 11:-0.91657662 12:0.37321019 13:0.14383671 14:-0.76075709 15:0.3580527 16:0.35668936 17:-0.48892921 18:0.30213889 21:0.17 24:0.34 25:0.051608726 26:-0.22885484 27:0.33434117 28:0.10321818 29:-0.45771039 30:0.32868108 31:0.18031888 32:-0.57290196 33:0.35855782 34:0.36983642 35:-0.78399259 36:0.4183085 #
1.6096150070819241761910234345123 2:-1.33 3:0.12 5:-1.33 6:0.30000001 7:0.0030632515 8:-1.196992 9:0.44594598 10:0.0061265416 11:-1.0639794 12:0.59189272 13:0.012933861 14:-0.87965351 15:0.58943284 16:0.076938823 17:-0.41343054 18:0.54508042 21:0.17 24:0.34 25:0.081900299 26:-0.14235333 27:0.44224879 28:0.1638009 29:-0.28470656 30:0.54449695 31:0.2185967 32:-0.42647365 33:0.59371293 34:0.33749095 35:-0.85514957 36:0.70853382 #
-2.1989976088736962189784662768943 2:-1.33 3:0.12 5:-1.33 6:0.30000001 7:-0.059634127 8:-1.122239 9:0.29170147 10:-0.11926796 11:-0.91448539 12:0.28340265 13:-0.21046229 14:-0.7845431 15:0.32389921 16:-0.44817272 17:-0.53337151 18:0.44495419 21:0.17 24:0.34 25:-0.080688402 26:-0.18808526 27:0.37979221 28:-0.16137731 29:-0.37617117 30:0.4195832 31:-0.072645821 32:-0.44988966 33:0.45934182 34:0.015447527 35:-0.66509444 36:0.32731956 #
-23.842778546751034696171700488776 2:-1.33 3:0.12 5:-1.33 6:0.30000001 7:-0.041054286 8:-1.1235383 9:0.34787509 10:-0.082108431 11:-0.91707599 12:0.39575025 13:-0.069523141 14:-0.71192485 15:0.4216556 16:-0.042167671 17:-0.17088485 18:0.48118934 21:0.17 24:0.34 25:0.013570238 26:-0.11215329 27:0.50132555 28:0.027140148 29:-0.22430606 30:0.66265112 31:0.086793803 32:-0.2971082 33:0.77580339 34:0.29495418 35:-0.58253515 36:1.0710174 #
-3.2466895658710375194289099454181 2:-1.33 3:0.12 5:-1.33 6:0.30000001 7:0.041390385 8:-1.1633118 9:0.39223841 10:0.082780778 11:-0.9966231 12:0.48447716 13:0.11031879 14:-0.86874062 15:0.6125887 16:0.14859629 17:-0.56581622 18:0.9037922 21:0.17 24:0.34 25:0.07141979 26:-0.050879788 27:0.49394736 28:0.14283958 29:-0.10175994 30:0.64789462 31:0.13333148 32:-0.25932801 33:0.62960434 34:-0.0035485378 35:-0.45190221 36:0.3807483 #
20.742577216322708011375652858987 2:-1.33 3:0.12 5:-1.33 6:0.30000001 7:0.026545236 8:-1.1197326 9:0.31773999 10:0.053090338 11:-0.90947592 12:0.33547965 13:0.049095999 14:-0.74274307 15:0.37380683 16:0.035070837 17:-0.32930937 18:0.48761025 21:0.17 24:0.34 25:0.11603834 26:-0.060530856 27:0.48362842 28:0.23207685 29:-0.12106153 30:0.62725711 31:0.30509537 32:-0.21585241 33:0.73947829 34:0.40464035 35:-0.36927223 36:0.99279666 #
0.44205937034028186527478965217597 2:-1.33 3:0.12 5:-1.33 6:0.30000001 7:-0.013147352 8:-1.240275 9:0.51556319 10:-0.02629433 11:-1.1505429 12:0.73112732 13:0.1799494 14:-1.047919 15:0.62098855 16:0.59502006 17:-0.83254939 18:0.45243564 21:0.17 24:0.34 25:0.020583194 26:-0.21561146 27:0.37662601 28:0.041166533 29:-0.4312228 30:0.41325107 31:0.039723076 32:-0.65109438 33:0.4242382 34:0.05961597 35:-1.2285724 36:0.420735 #
-7.7216077728841234772971802158281 2:-1.33 3:0.12 5:-1.33 6:0.30000001 7:0.064609513 8:-1.1890473 9:0.4491815 10:0.12921904 11:-1.0480926 12:0.5983637 13:0.15172777 14:-0.88504404 15:0.58977473 16:0.13595256 17:-0.68244588 18:0.47900274 21:0.17 24:0.34 25:0.068850853 26:-0.16716889 27:0.3946875 28:0.13770205 29:-0.33433822 30:0.44937417 31:0.29689947 32:-0.38814256 33:0.47145402 34:0.59830332 35:-0.42444682 36:0.43241984 #
4.6277743789415080044591377372853 2:-1.33 3:0.12 5:-1.33 6:0.30000001 7:-0.043306503 8:-1.1226351 9:0.33573973 10:-0.08661288 11:-0.91527373 12:0.37147948 13:-0.070026599 14:-0.73722225 15:0.40732029 16:-0.017679473 17:-0.42283261 18:0.48971483 21:0.17 24:0.34 25:-0.14163843 26:-0.065579779 27:0.44543329 28:-0.28327703 29:-0.13115968 30:0.55086613 31:-0.21927507 32:-0.19881114 33:0.56238401 34:-0.011740923 35:-0.087466285 36:0.32985157 #
3.9798170690170961982801145495614 2:-1.33 3:0.12 5:-1.33 6:0.30000001 7:0.0058426512 8:-1.1932886 9:0.41359535 10:0.011685266 11:-1.0565757 12:0.52719116 13:0.10850164 14:-0.93733346 15:0.52580541 16:0.26012796 17:-0.77384311 18:0.50188565 21:0.17 24:0.34 25:0.0051936186 26:-0.1606025 27:0.41860935 28:0.010387343 29:-0.32120493 30:0.49721816 31:0.028964385 32:-0.3942619 33:0.63054746 34:0.11409851 35:-0.51315641 36:1.0774556 #
-7.8409617092455778930570886586793 2:-1.33 3:0.12 5:-1.33 6:0.30000001 7:-0.036851391 8:-1.1726017 9:0.41191727 10:-0.073702864 11:-1.0151986 12:0.52383548 13:-0.077591375 14:-1.0662374 15:0.72637719 16:-0.1042663 17:-1.2417163 18:1.0311596 21:0.17 24:0.34 25:-0.0014786813 26:-0.18973222 27:0.39678648 28:-0.0029573129 29:-0.37946352 30:0.45357209 31:-0.0026499501 32:-0.58516634 33:0.49531838 34:-0.046052653 35:-1.1514198 36:0.55993366 #
-17.679262596486744030244153691456 2:-1.33 3:0.12 5:-1.33 6:0.30000001 7:0.06906464 8:-1.1150593 9:0.24918638 10:0.13812886 11:-0.90012676 12:0.19837245 13:0.1846128 14:-0.83727419 15:0.33547369 16:0.21544255 17:-0.79155737 18:0.65772641 21:0.17 24:0.34 25:0.0069779027 26:-0.20220977 27:0.39490241 28:0.013955955 29:-0.40441874 30:0.44980377 31:0.05655602 32:-0.59328425 33:0.46670932 34:0.087109812 35:-1.1749566 36:0.49807599 #
1.8240965519190879273736527466099 2:-1.33 3:0.12 5:-1.33 6:0.30000001 7:-0.074646398 8:-1.1628443 9:0.38025421 10:-0.14929254 11:-0.99569029 12:0.46050879 13:-0.19975469 14:-0.86888826 15:0.53364122 16:-0.37831441 17:-0.51263726 18:0.7074483 21:0.17 24:0.34 25:-0.0028245344 26:-0.21002853 27:0.31309533 28:-0.0056489552 29:-0.42005664 30:0.28618988 31:-0.069807813 32:-0.57509148 33:0.27197227 34:-0.061296057 35:-0.66947776 36:0.43477988 #
19.506038165076898138750038924627 2:-1.33 3:0.12 5:-1.33 6:0.30000001 7:0.0059940028 8:-1.1158088 9:0.3252508 10:0.011988059 11:-0.90162188 12:0.35050151 13:0.021868642 14:-0.74889356 15:0.30691645 16:0.01479823 17:-0.61087507 18:0.23564905 21:0.17 24:0.34 25:-0.13227344 26:-0.14817244 27:0.36128217 28:-0.26454738 29:-0.29634586 30:0.3825635 31:-0.29021397 32:-0.42837247 33:0.42208964 34:-0.31232169 35:-0.70802349 36:0.47786233 #
2.0799414490210015316051794798113 2:-1.33 3:0.12 5:-1.33 6:0.30000001 7:-0.17170769 8:-1.2406824 9:0.29533374 10:-0.34341609 11:-1.1513579 12:0.29066727 13:-0.46529919 14:-1.100451 15:0.34204817 16:-0.70202655 17:-1.0155206 18:0.40079093 21:0.17 24:0.34 25:-0.073899813 26:-0.15528055 27:0.41218597 28:-0.1478 29:-0.31056231 30:0.48437107 31:-0.22142363 32:-0.51224452 33:0.49541482 34:-0.54295295 35:-1.0754319 36:0.45005226 #
8.1610516866805475899582233978435 2:-1.33 3:0.12 5:-1.33 6:0.30000001 7:-0.04692246 8:-1.1168078 9:0.30232602 10:-0.093844779 11:-0.90362167 12:0.30465183 13:-0.11207134 14:-0.77968293 15:0.40445137 16:-0.18538246 17:-0.76154917 18:0.59929734 21:0.17 24:0.34 25:-0.059375461 26:-0.16583475 27:0.45485282 28:-0.11875094 29:-0.33166945 30:0.56970507 31:-0.18952748 32:-0.41447827 33:0.66181993 34:-0.34784976 35:-0.38851282 36:0.90671569 #
13.358621713243364226286757912021 2:-1.33 3:0.12 5:-1.33 6:0.30000001 7:0.10296549 8:-1.2616518 9:0.40474665 10:0.20593089 11:-1.1933014 12:0.50949371 13:0.31504232 14:-1.047829 15:0.5954529 16:0.58740252 17:-0.72707522 18:0.7547341 21:0.17 24:0.34 25:0.051390111 26:-0.1010142 27:0.47175524 28:0.10278019 29:-0.20202848 30:0.60351026 31:0.18506579 32:-0.37281293 33:0.69976711 34:0.35837066 35:-0.74331796 36:0.9197849 #
-15.854850878719235041103274852503 2:-1.33 3:0.12 5:-1.33 6:0.30000001 7:0.13980924 8:-1.1740886 9:0.33310005 10:0.27961782 11:-1.0181841 12:0.36620006 13:0.33258727 14:-0.82954127 15:0.39289355 16:0.48238194 17:-0.34059754 18:0.46122316 21:0.17 24:0.34 25:0.17968421 26:-0.080676138 27:0.37210956 28:0.35936761 29:-0.16135257 30:0.4042182 31:0.48163137 32:-0.20150095 33:0.47566026 34:0.74087632 35:-0.20127603 36:0.61739552 #
-4.3515064450079652402791907661594 2:-1.33 3:0.12 5:-1.33 6:0.30000001 7:-0.023390789 8:-1.2886466 9:0.49483898 10:-0.046781451 11:-1.2472914 12:0.68967855 13:-0.0023899935 14:-1.03661 15:0.59245718 16:0.13862596 17:-0.69365513 18:0.32154402 21:0.17 24:0.34 25:0.078577571 26:-0.17267662 27:0.3878192 28:0.15715548 29:-0.34535319 30:0.43563747 31:0.18545343 32:-0.43918693 33:0.43867141 34:0.18252985 35:-0.67377186 36:0.45545197 #
4.3612681715673842219871403358411 2:-1.33 3:0.12 5:-1.33 6:0.30000001 7:-0.049023669 8:-1.1397369 9:0.34520358 10:-0.098047145 11:-0.94947886 12:0.3904072 13:-0.11559422 14:-0.74648434 15:0.399575 16:-0.16791725 17:-0.21896547 18:0.43048996 21:0.17 24:0.34 25:-0.14026001 26:0.051369607 27:0.47306189 28:-0.28052086 29:0.10273932 30:0.60612351 31:-0.37665841 32:0.093290515 33:0.6943329 34:-0.61176705 35:-0.028886626 36:0.86082447 #
2.2899738537341902677724192471942 2:-1.33 3:0.12 5:-1.33 6:0.30000001 7:-0.16638444 8:-1.2493469 9:0.39547133 10:-0.33276853 11:-1.1686875 12:0.4909434 13:-0.27558154 14:-1.1188339 15:0.53872693 16:-0.0059151603 17:-1.1192631 18:0.59235626 21:0.17 24:0.34 25:0.047907226 26:-0.16419972 27:0.40127909 28:0.095814511 29:-0.32839954 30:0.46255735 31:0.10516955 32:-0.50570858 33:0.4995181 34:0.12408833 35:-0.95194352 36:0.53065431 #
10.186934865718342280160868540406 2:-1.33 3:0.12 5:-1.33 6:0.30000001 7:-0.0082430942 8:-1.1231618 9:0.34336701 10:-0.016485987 11:-0.91632819 12:0.38673407 13:-0.032897014 14:-0.77199328 15:0.52080256 16:-0.074545518 17:-0.517609 18:0.74991816 21:0.17 24:0.34 25:0.072250754 26:-0.16885167 27:0.37229267 28:0.14450175 29:-0.33770305 30:0.40458465 31:0.11725648 32:-0.48909089 33:0.50799721 34:0.011944523 35:-0.66011792 36:0.91434026 #
-7.2714966366242608231118538242299 2:-1.33 3:0.12 5:-1.33 6:0.30000001 7:-0.099577487 8:-1.1987485 9:0.40431318 10:-0.19915473 11:-1.0674995 12:0.5086267 13:-0.1834556 14:-0.90806556 15:0.53398484 16:-0.034296978 17:-0.67783475 18:0.40339831 21:0.17 24:0.34 25:-0.085845724 26:-0.17057738 27:0.30261281 28:-0.17169179 29:-0.34115463 30:0.26522514 31:-0.19911507 32:-0.48685876 33:0.26637134 34:-0.035403907 35:-0.72208714 36:0.51051003 #
5.3236773554897975913036134443246 2:-1.33 3:0.12 5:-1.33 6:0.30000001 7:-0.14364779 8:-1.1569694 9:0.38681275 10:-0.28729525 11:-0.98394024 12:0.47362602 13:-0.20957991 14:-0.86885363 15:0.56268507 16:0.084098853 17:-0.73406607 18:0.78023481 21:0.17 24:0.34 25:-0.039972715 26:-0.12938289 27:0.45666903 28:-0.079945438 29:-0.25876573 30:0.57333761 31:-0.057465635 32:-0.32539284 33:0.62958336 34:0.077502944 35:-0.41276941 36:0.53899068 #
13.731893261453326005039343726821 2:-1.33 3:0.12 5:-1.33 6:0.30000001 7:0.026662551 8:-1.3770535 9:0.49819764 10:0.053324994 11:-1.4241071 12:0.69639516 13:0.25075749 14:-1.4600581 15:0.59353364 16:0.38780203 17:-1.3498833 18:0.46021104 21:0.17 24:0.34 25:-0.0098519381 26:-0.20026737 27:0.36308765 28:-0.019703969 29:-0.40053353 30:0.38617423 31:-0.020028599 32:-0.60035765 33:0.42241064 34:-0.010570033 35:-1.1373466 36:0.53198612 #
7.8272405698946752039546481682919 2:-1.33 3:0.12 5:-1.33 6:0.30000001 7:0.011400254 8:-1.2862308 9:0.48160392 10:0.022800913 11:-1.2424642 12:0.66320831 13:0.013727518 14:-1.0401349 15:0.70564836 16:-0.13708545 17:-0.49943709 18:0.77755356 21:0.17 24:0.34 25:-0.089974783 26:-0.10587575 27:0.48476923 28:-0.1799494 29:-0.2117518 30:0.62953824 31:-0.28479725 32:-0.26758564 33:0.72552538 34:-0.44450486 35:-0.30512005 36:0.94712919 #
-5.1438555791823610263691080035642 2:-1.33 3:0.12 5:-1.33 6:0.30000001 7:-0.14399821 8:-1.1913908 9:0.26501462 10:-0.28799623 11:-1.0527811 12:0.23002917 13:-0.39681661 14:-1.1162338 15:0.30142397 16:-0.34267482 17:-1.3239869 18:0.40862966 21:0.17 24:0.34 25:-0.030041363 26:-0.1882239 27:0.37503156 28:-0.060082767 29:-0.37644708 30:0.41006219 31:-0.067511909 32:-0.54591048 33:0.42807853 34:-0.02813489 35:-0.95967072 36:0.49808502 #
5.0897102490461580970304567017592 2:-1.33 3:0.12 5:-1.33 6:0.30000001 7:-0.11139616 8:-1.1481321 9:0.30894825 10:-0.2227923 11:-0.96626586 12:0.31789637 13:-0.34597731 14:-0.84149319 15:0.36808527 16:-0.61765689 17:-0.71146512 18:0.3984966 21:0.17 24:0.34 25:0.019453716 26:-0.17670928 27:0.36513826 28:0.038907483 29:-0.35341957 30:0.39027566 31:-0.034094062 32:-0.55433583 33:0.38431579 34:-0.3302592 35:-0.93465602 36:0.38066676 #
-9.3768520677218187842072438797913 2:-1.33 3:0.12 5:-1.33 6:0.30000001 7:0.0056840018 8:-1.1278799 9:0.42296192 10:0.011367829 11:-0.92576075 12:0.54592466 13:0.038753919 14:-0.8333922 15:0.63510162 16:0.075953223 17:-0.67218256 18:0.79917055 21:0.17 24:0.34 25:-0.027062738 26:-0.17563878 27:0.42857701 28:-0.054125674 29:-0.35127774 30:0.51715326 31:-0.10398643 32:-0.4537456 33:0.46520898 34:-0.28628474 35:-0.75716853 36:0.31826976 #
7.6618483504868342137683612236287 2:-1.33 3:0.12 5:-1.33 6:0.30000001 7:0.029672811 8:-1.1967837 9:0.43719837 10:0.059345592 11:-1.0635655 12:0.57439733 13:0.039956842 14:-1.034965 15:0.6669448 16:-0.055555437 17:-0.99794304 18:0.83009976 21:0.17 24:0.34 25:-0.041652311 26:-0.058198541 27:0.52276993 28:-0.083304569 29:-0.11639722 30:0.70553982 31:0.016079357 32:-0.28598064 33:0.59476066 34:0.19656664 35:-0.72838062 36:0.34118283 #
-5.1756446110179377129156819137279 2:-1.33 3:0.12 5:-1.33 6:0.30000001 7:0.034658443 8:-1.1250391 9:0.33863723 10:0.069316745 11:-0.9200812 12:0.37727445 13:0.071098439 14:-0.73222935 15:0.43418199 16:0.048946515 17:-0.30872899 18:0.53175688 21:0.17 24:0.34 25:0.047021318 26:0.00072294084 27:0.56666642 28:0.094042659 29:0.0014461207 30:0.79333305 31:0.076837078 32:-0.23934686 33:0.73115188 34:0.025872357 35:-0.55604672 36:0.39548802 #
-0.92000246601395241352605580686941 2:-1.33 3:0.12 5:-1.33 6:0.30000001 7:0.10859489 8:-1.1342503 9:0.29929909 10:0.21718937 11:-0.93850911 12:0.29859772 13:0.24605341 14:-0.77318782 15:0.41535029 16:0.15760852 17:-0.42941916 18:0.6816119 21:0.17 24:0.34 25:0.093639009 26:-0.2022652 27:0.34296125 28:0.18727873 29:-0.40453079 30:0.34592134 31:0.27792287 32:-0.4871102 33:0.36253983 34:0.1792829 35:-0.63083029 36:0.37528864 #
-6.8058927616804423266216872434597 2:-1.33 3:0.12 5:-1.33 6:0.30000001 7:-0.01671155 8:-1.1605502 9:0.37027022 10:-0.033423048 11:-0.99110091 12:0.4405407 13:-0.020226846 14:-0.79140538 15:0.43826467 16:0.015382752 17:-0.29118401 18:0.45267799 21:0.17 24:0.34 25:0.0033361989 26:-0.1518518 27:0.44005224 28:0.0066725262 29:-0.30370331 30:0.54010397 31:0.066009723 32:-0.25207537 33:0.67915916 34:0.22117278 35:-0.075115792 36:1.0393187 #
14.25519764429979829856165451929 2:-1.33 3:0.12 5:-1.33 6:0.30000001 7:-0.083701774 8:-1.2364749 9:0.48240647 10:-0.16740359 11:-1.1429406 12:0.66481388 13:-0.16821527 14:-1.0485138 15:0.69115317 16:-0.082690939 17:-0.95518559 18:0.49794972 21:0.17 24:0.34 25:-0.012216477 26:-0.083244994 27:0.50612092 28:-0.024432987 29:-0.16648948 30:0.67224175 31:-0.054340336 32:-0.27509624 33:0.79049993 34:-0.1657715 35:-0.60242981 36:0.95859778 #
-0.82851200712016404015258785875631 2:-1.33 3:0.12 5:-1.33 6:0.30000001 7:0.1258011 8:-1.1580358 9:0.29333672 10:0.25160155 11:-0.98608041 12:0.2866731 13:0.34722099 14:-0.93031853 15:0.40543225 16:0.28682289 17:-0.9390766 18:0.55860573 21:0.17 24:0.34 25:0.12326181 26:-0.15102264 27:0.37610292 28:0.24652418 29:-0.30204576 30:0.41220495 31:0.34920186 32:-0.42385823 33:0.48420072 34:0.62835282 35:-0.82677567 36:0.65438223 #
-4.3813780117083886977980000665411 2:-1.33 3:0.12 5:-1.33 6:0.30000001 7:0.039380983 8:-1.2715573 9:0.57236618 10:0.07876192 11:-1.2131095 12:0.84473222 13:-0.050341759 14:-1.1846274 15:0.95828497 16:-0.17948991 17:-1.3391691 18:1.1593187 21:0.17 24:0.34 25:-0.026658457 26:-0.20403945 27:0.39863139 28:-0.053317063 29:-0.40807787 30:0.45726186 31:-0.016125388 32:-0.61068451 33:0.51902193 34:0.10058966 35:-1.1859802 36:0.69766581 #
-2.7967234839333667828498164453777 2:-1.33 3:0.12 5:-1.33 6:0.30000001 7:0.11976953 8:-1.2111537 9:0.46510512 10:0.23953891 11:-1.0923027 12:0.63021141 13:0.16362114 14:-0.96380997 15:0.71212518 16:-0.0016434649 17:-0.78394926 18:0.87359232 21:0.17 24:0.34 25:0.062596217 26:-0.19294827 27:0.41624454 28:0.12519257 29:-0.38589624 30:0.49248815 31:0.019977003 32:-0.45557496 33:0.60899216 34:-0.18541341 35:-0.57036489 36:0.89946997 #
7.8153579207319223698391397192609 2:-1.33 3:0.12 5:-1.33 6:0.30000001 7:0.053285796 8:-1.1309309 9:0.34354356 10:0.10657139 11:-0.93186152 12:0.38708723 13:0.075987227 14:-0.73896557 15:0.43586215 16:-0.05597233 17:-0.24276364 18:0.50883257 21:0.17 24:0.34 25:-0.073772475 26:-0.19580977 27:0.34824443 28:-0.14754565 29:-0.39162034 30:0.3564876 31:-0.26935881 32:-0.50508398 33:0.4032037 34:-0.47625405 35:-0.58623689 36:0.55907196 #
-12.11666523404182527201555785723 2:-1.33 3:0.12 5:-1.33 6:0.30000001 7:-0.18406887 8:-1.2803333 9:0.35959828 10:-0.36813769 11:-1.2306604 12:0.41919681 13:-0.43679485 14:-1.0610856 15:0.48612925 16:-0.56244463 17:-0.64350522 18:0.56513327 21:0.17 24:0.34 25:-0.16584645 26:-0.13296729 27:0.34631842 28:-0.33169335 29:-0.26593563 30:0.35263586 31:-0.41209209 32:-0.39566815 33:0.40549269 34:-0.53006172 35:-0.60348326 36:0.53254515 #
2.940761372221621261502377819852 2:-1.33 3:0.12 5:-1.33 6:0.30000001 7:-0.019129373 8:-1.1960012 9:0.45773113 10:-0.038258813 11:-1.061998 12:0.61546314 13:-0.0649589 14:-0.89384288 15:0.63779736 16:-0.13156141 17:-0.45466563 18:0.71473801 21:0.17 24:0.34 25:-0.020421449 26:-0.060189795 27:0.52453178 28:-0.040843006 29:-0.12037948 30:0.70906365 31:0.061983805 32:-0.23485416 33:0.74175572 34:0.32925516 35:-0.37398109 36:0.61204314 #
-25.184561243382233897136757150292 2:-1.33 3:0.12 5:-1.33 6:0.30000001 7:0.086238272 8:-1.1996851 9:0.47786745 10:0.17247677 11:-1.0693613 12:0.65573615 13:0.24733008 14:-0.94884187 15:0.79978538 16:0.34471822 17:-0.75343198 18:0.9930678 21:0.17 24:0.34 25:-0.0053223874 26:-0.1850078 27:0.37906337 28:-0.010644674 29:-0.37001589 30:0.41812575 31:0.05484698 32:-0.57552552 33:0.45815101 34:0.19936466 35:-1.1250931 36:0.54373437 #
1.4512354061577481534328626366914 2:-1.33 3:0.12 5:-1.33 6:0.30000001 7:0.10896677 8:-1.221191 9:0.42856267 10:0.21793361 11:-1.1123785 12:0.5571261 13:0.20591484 14:-1.0546696 15:0.76587194 16:0.0066196104 17:-1.1455184 18:0.83464551 21:0.17 24:0.34 25:0.022734933 26:-0.093504235 27:0.51870757 28:0.045469936 29:-0.18700723 30:0.69741529 31:0.051448047 32:-0.40795448 33:0.72956955 34:0.071514644 35:-0.97363138 36:0.81423128 #
13.179535768337537149363924982026 2:-1.33 3:0.12 5:-1.33 6:0.30000001 7:-0.11280109 8:-1.2351745 9:0.50190717 10:-0.2256023 11:-1.140335 12:0.703816 13:-0.26657507 14:-1.0043024 15:0.78274029 16:-0.19916734 17:-0.78244311 18:0.82937187 21:0.17 24:0.34 25:0.060792387 26:-0.16329375 27:0.47681999 28:0.12158484 29:-0.32658708 30:0.61363971 31:0.017605387 32:-0.48844197 33:0.64238483 34:-0.27219909 35:-0.94927627 36:0.72075224 #
-5.7317335039216814607243577484041 2:-1.33 3:0.12 5:-1.33 6:0.30000001 7:0.027908336 8:-1.1215054 9:0.41207054 10:0.055816658 11:-0.91301215 12:0.52414185 13:-0.083809718 14:-0.841111 15:0.5054301 16:-0.34232917 17:-0.93153739 18:0.41814014 21:0.17 24:0.34 25:-0.063428804 26:-0.17390889 27:0.34610227 28:-0.12685816 29:-0.3478187 30:0.35220379 31:-0.23276283 32:-0.45158833 33:0.40926647 34:-0.50053954 35:-0.72674984 36:0.62755835 #
-4.4506881492526551014066171774175 2:-1.33 3:0.12 5:-1.33 6:0.30000001 7:-0.038114518 8:-1.1436424 9:0.39776421 10:-0.076228909 11:-0.95728588 12:0.49552885 13:-0.0039600087 14:-0.84101135 15:0.61338192 16:0.14853673 17:-0.76274204 18:0.91545063 21:0.17 24:0.34 25:0.032306112 26:-0.17469893 27:0.41024652 28:0.064612299 29:-0.34939775 30:0.48049217 31:0.14270927 32:-0.47765011 33:0.53373754 34:0.47331581 35:-0.90992975 36:0.66773522 #
3.2045177860511064871218422922539 2:-1.33 3:0.12 5:-1.33 6:0.30000001 7:0.043204326 8:-1.2229066 9:0.45998523 10:0.086408585 11:-1.1158074 12:0.61997128 13:0.2093627 14:-1.0649693 15:0.50200957 16:0.2133202 17:-1.1129215 18:0.24753179 21:0.17 24:0.34 25:0.018757904 26:-0.09984114 27:0.48099464 28:0.037515666 29:-0.19968207 30:0.62198913 31:0.034103323 32:-0.36195734 33:0.63306117 34:0.11533909 35:-0.73342013 36:0.66183048 #
-20.268009267492516300990246236324 2:-1.33 3:0.12 5:-1.33 6:0.30000001 7:-0.065344013 8:-1.2692478 9:0.47891089 10:-0.13068806 11:-1.2084886 12:0.65782261 13:-0.27226356 14:-1.0834939 15:0.70876056 16:-0.49089494 17:-0.82193673 18:0.73826373 21:0.17 24:0.34 25:-0.083088301 26:-0.15263247 27:0.3833198 28:-0.16617696 29:-0.30526498 30:0.42663887 31:-0.26303986 32:-0.4465268 33:0.50830078 34:-0.56284577 35:-0.82833678 36:0.78961158 #
0.64911529846458138059972498012939 2:-1.33 3:0.12 5:-1.33 6:0.30000001 7:0.010703479 8:-1.1281648 9:0.34005743 10:0.021406936 11:-0.9263308 12:0.38011485 13:0.038794316 14:-0.71999794 15:0.41609979 16:0.10963765 17:-0.15791939 18:0.48923209 21:0.17 24:0.34 25:0.086844221 26:-0.1667105 27:0.39393291 28:0.17368849 29:-0.33342132 30:0.44786498 31:0.25078571 32:-0.25694481 33:0.53522193 34:0.071751773 35:0.036740862 36:0.42987588 #
5.5806330256751586205155035713688 2:-1.33 3:0.12 5:-1.33 6:0.30000001 7:-0.1513432 8:-1.1834525 9:0.26621965 10:-0.30268607 11:-1.0369099 12:0.23243891 13:-0.25878552 14:-0.89353472 15:0.3309184 16:-0.082748964 17:-0.77843797 18:0.61665756 21:0.17 24:0.34 25:-0.12074577 26:-0.15302423 27:0.39013094 28:-0.24149209 29:-0.30604959 30:0.44026092 31:-0.26114634 32:-0.47793108 33:0.45431167 34:-0.22269198 35:-0.90310371 36:0.43487969 #
4.490692264661051424923243757803 2:-1.33 3:0.12 5:-1.33 6:0.30000001 7:-0.094615661 8:-1.1524606 9:0.33904159 10:-0.18923101 11:-0.97492015 12:0.37808329 13:-0.1347723 14:-0.79841012 15:0.38695282 16:0.10088416 17:-0.44103926 18:0.41906729 21:0.17 24:0.34 25:0.053535268 26:-0.20137334 27:0.38597274 28:0.10707111 29:-0.40274742 30:0.43194431 31:0.24858811 32:-0.51372117 33:0.49997023 34:0.58176315 35:-0.50064754 36:0.63770473 #
-16.841411719264002044837980065495 2:-1.33 3:0.12 5:-1.33 6:0.30000001 7:-0.021812739 8:-1.1404722 9:0.3601037 10:-0.043625459 11:-0.95094734 12:0.4202075 13:-0.04796733 14:-0.80442894 15:0.47505975 16:-0.0052096262 17:-0.34708515 18:0.66607124 21:0.17 24:0.34 25:-0.15835942 26:-0.079375252 27:0.33929604 28:-0.31671908 29:-0.15875183 30:0.33859113 31:-0.26565495 32:-0.29822117 33:0.43231151 34:-0.13400738 35:-0.58407718 36:0.6050896 #
1.9744868299992228699579754902516 2:-1.33 3:0.12 5:-1.33 6:0.30000001 7:-0.20109478 8:-1.3315564 9:0.33790126 10:-0.40218878 11:-1.333112 12:0.37580255 13:-0.54400688 14:-1.300324 15:0.40917087 16:-0.84112626 17:-1.2141587 18:0.50705898 21:0.17 24:0.34 25:-0.00091288501 26:-0.20282818 27:0.37211701 28:-0.0018257829 29:-0.40565562 30:0.40423304 31:0.0029561601 32:-0.59067822 33:0.43395948 34:0.023703333 35:-1.0676252 36:0.5035122 #
-14.466431934566253758589482458774 2:-1.33 3:0.12 5:-1.33 6:0.30000001 7:-0.088603444 8:-1.1342351 9:0.34174925 10:-0.17720637 11:-0.93847734 12:0.38349855 13:-0.26965243 14:-0.82743794 15:0.43454581 16:-0.51390344 17:-0.6367262 18:0.47841635 21:0.17 24:0.34 25:-0.200589 26:-0.042952694 27:0.36856401 28:-0.40117836 29:-0.085905351 30:0.39712712 31:-0.47681051 32:-0.25351301 33:0.43220377 34:-0.5429014 35:-0.79590523 36:0.50062186 #
15.596381357864464334284093638416 2:-1.33 3:0.12 5:-1.33 6:0.30000001 7:-0.0079673529 8:-1.1563712 9:0.40307608 10:-0.015934665 11:-0.98274237 12:0.50615269 13:-0.01720009 14:-0.74268728 15:0.56851584 16:-0.063880496 17:-0.2196615 18:0.71047914 21:0.17 24:0.34 25:-0.076298289 26:-0.12925142 27:0.46020991 28:-0.15259695 29:-0.25850242 30:0.58041954 31:-0.15709408 32:-0.26300657 33:0.59245867 34:-0.044455115 35:-0.37154675 36:0.72034478 #
-3.9238743813208887267762747796951 2:-1.33 3:0.12 5:-1.33 6:0.30000001 7:0.16435845 8:-1.2132528 9:0.3529692 10:0.3287164 11:-1.0965053 12:0.40593851 13:0.35611126 14:-1.0332927 15:0.54007477 16:0.38098213 17:-0.91772246 18:0.70926887 21:0.17 24:0.34 25:0.084077626 26:-0.18040133 27:0.36778283 28:0.16815555 29:-0.36080301 30:0.39556462 31:0.15860493 32:-0.48728415 33:0.42114031 34:-0.0073826346 35:-0.59540612 36:0.49914899 #
-2.9604273973998700419940632855287 2:-1.33 3:0.12 5:-1.33 6:0.30000001 7:0.013357892 8:-1.1269389 9:0.37979767 10:0.026715688 11:-0.92387956 12:0.45959574 13:0.15984523 14:-0.79199344 15:0.51655537 16:0.3957566 17:-0.49591103 18:0.6604057 21:0.17 24:0.34 25:-0.043625046 26:-0.14443351 27:0.45899189 28:-0.087250292 29:-0.288867 30:0.5779835 31:-0.012632611 32:-0.39961699 33:0.60853136 34:0.19400418 35:-0.87250954 36:0.5210703 #
-3.5073946224220491352241424465319 2:-1.33 3:0.12 5:-1.33 6:0.30000001 7:-0.092529118 8:-1.1611851 9:0.30568537 10:-0.18505785 11:-0.99237478 12:0.31137052 13:-0.20141275 14:-0.78232169 15:0.36412966 16:-0.25248274 17:-0.3861272 18:0.52663708 21:0.17 24:0.34 25:-0.12394547 26:0.047710065 27:0.46079376 28:-0.24789134 29:0.095420733 30:0.58158714 31:-0.25999153 32:-0.10857529 33:0.55725157 34:-0.10327117 35:-0.39754453 36:0.52225363 #
3.3877707717357923300482980266679 2:-1.33 3:0.12 5:-1.33 6:0.30000001 7:0.080645666 8:-1.1390349 9:0.37986997 10:0.16129124 11:-0.94806898 12:0.45974004 13:0.15619095 14:-0.82766861 15:0.51659346 16:0.16162959 17:-0.6688605 18:0.52870405 21:0.17 24:0.34 25:-0.00091992365 26:-0.049938112 27:0.57015365 28:-0.0018396979 29:-0.09987554 30:0.80030745 31:-0.11323887 32:-0.23967324 33:0.77342898 34:-0.29737091 35:-0.4659498 36:0.69858724 #
-16.123634070054603029120698920451 2:-1.33 3:0.12 5:-1.33 6:0.30000001 7:-0.038513374 8:-1.2647054 9:0.48075432 10:-0.077026881 11:-1.199402 12:0.66150963 13:-0.19676656 14:-1.055257 15:0.72837502 16:-0.31296298 17:-0.7426095 18:0.86198825 21:0.17 24:0.34 25:-0.027731271 26:-0.036446419 27:0.51664948 28:-0.055462871 29:-0.072892137 30:0.69329906 31:-0.076285541 32:-0.22151998 33:0.77146 34:-0.42338195 35:-0.52075398 36:0.88305867 #
16.663361059449609768989830627106 2:-1.33 3:0.12 5:-1.33 6:0.30000001 7:-0.026975412 8:-1.1197882 9:0.36050105 10:-0.053950734 11:-0.90957546 12:0.42100215 13:-0.039615221 14:-0.71019447 15:0.47071445 16:0.020385681 17:-0.17716022 18:0.63065386 21:0.17 24:0.34 25:-0.030111896 26:0.0044403668 27:0.56470656 28:-0.060223579 29:0.0088805649 30:0.78941321 31:-0.16326632 32:-0.26181209 33:0.878959 34:-0.0736873 35:-0.28462103 36:0.54789883 #
-6.6576995882650269464875236735679 2:-1.33 3:0.12 5:-1.33 6:0.30000001 7:0.01254016 8:-1.2507794 9:0.45869064 10:0.025080405 11:-1.1715544 12:0.61738223 13:0.04130495 14:-0.96082687 15:0.64203465 16:-0.00028377015 17:-0.46878523 18:0.68822277 21:0.17 24:0.34 25:0.10571698 26:-0.11310203 27:0.48598459 28:0.21143371 29:-0.22620395 30:0.63196927 31:0.23417749 32:-0.3429696 33:0.68655974 34:-0.048289448 35:-0.47678933 36:0.7634812 #
16.366700731629531873068117420189 2:-1.33 3:0.12 5:-1.33 6:0.30000001 7:-0.012011327 8:-1.1740447 9:0.42802167 10:-0.024022713 11:-1.0180848 12:0.55604392 13:0.10018892 14:-0.9365775 15:0.60411555 16:0.32435861 17:-0.77309048 18:0.56930161 21:0.17 24:0.34 25:0.1132784 26:-0.14895782 27:0.38829094 28:0.22655721 29:-0.29791629 30:0.43658078 31:0.14354464 32:-0.47765833 33:0.49330389 34:-0.20966445 35:-0.87950194 36:0.61581784 #
-3.1413976547767274993816499772947 2:-1.33 3:0.12 5:-1.33 6:0.30000001 7:-0.056936335 8:-1.1824523 9:0.46599346 10:-0.11387282 11:-1.0349019 12:0.63198775 13:-0.17525618 14:-0.92557293 15:0.70508587 16:-0.19558412 17:-0.73093015 18:0.80495936 21:0.17 24:0.34 25:0.054576613 26:-0.15523444 27:0.4371047 28:0.10915338 29:-0.31046861 30:0.53420871 31:0.045420893 32:-0.41186786 33:0.66859514 34:-0.11175821 35:-0.23379926 36:0.80341572 #
-8.0768643963786708184215967776254 2:-1.33 3:0.12 5:-1.33 6:0.30000001 7:0.12748677 8:-1.3540949 9:0.4073323 10:0.25497302 11:-1.37819 12:0.51466513 13:0.17933284 14:-1.2369673 15:0.54113746 16:0.0015960352 17:-0.84625512 18:0.67626894 21:0.17 24:0.34 25:0.0068613533 26:-0.19161756 27:0.38344112 28:0.01372268 29:-0.38323477 30:0.42688128 31:0.028727753 32:-0.54982656 33:0.50822663 34:0.11497931 35:-0.95923924 36:0.69158816 #
5.2104717961750575128121454326902 2:-1.33 3:0.12 5:-1.33 6:0.30000001 7:0.095288515 8:-1.1535083 9:0.3364349 10:0.19057694 11:-0.97701693 12:0.37287 13:0.17176583 14:-0.82517189 15:0.39057374 16:0.10633118 17:-0.54659504 18:0.41333789 21:0.17 24:0.34 25:0.18089586 26:-0.11767872 27:0.41877511 28:0.36179206 29:-0.23535886 30:0.49754965 31:0.29262382 32:-0.39155546 33:0.50671262 34:0.16830601 35:-0.89157802 36:0.37166402 #
-8.8164308044094052974060105043463 2:-1.33 3:0.12 5:-1.33 6:0.30000001 7:0.068289615 8:-1.1269438 9:0.29548278 10:0.13657902 11:-0.92389423 12:0.29096541 13:0.13636053 14:-0.79557014 15:0.46212769 16:0.11821415 17:-0.4998022 18:0.89210677 21:0.17 24:0.34 25:0.0038619172 26:-0.080634117 27:0.50933444 28:0.0077236514 29:-0.16126777 30:0.67866892 31:0.091413349 32:-0.25204858 33:0.7580446 34:0.31786114 35:-0.62099051 36:0.94117224 #
-4.1442847321665663429257620009594 2:-1.33 3:0.12 5:-1.33 6:0.30000001 7:0.054240901 8:-1.1767219 9:0.41071647 10:0.10848174 11:-1.0234425 12:0.52143329 13:0.059553605 14:-0.90440553 15:0.61315137 16:-0.15686737 17:-0.79099005 18:0.62387085 21:0.17 24:0.34 25:0.054473188 26:-0.16776437 27:0.4005262 28:0.10894665 29:-0.33552957 30:0.46105143 31:0.22016661 32:-0.52590555 33:0.46589881 34:0.40912569 35:-1.0584641 36:0.39227903 #
-14.922230547716356596765763242729 2:-1.33 3:0.12 5:-1.33 6:0.30000001 7:-0.19345723 8:-1.2513961 9:0.32607371 10:-0.38691416 11:-1.1727918 12:0.35214749 13:-0.42959943 14:-1.038473 15:0.38898969 16:-0.43364269 17:-0.88916963 18:0.53160965 21:0.17 24:0.34 25:-0.07119491 26:-0.032835834 27:0.49582815 28:-0.14238979 29:-0.065671586 30:0.65165621 31:-0.1873104 32:-0.23086904 33:0.62457937 34:-0.26864666 35:-0.64503604 36:0.56767339 #
-15.765803180071454647759310319088 2:-1.33 3:0.12 5:-1.33 6:0.30000001 7:0.076566309 8:-1.2115886 9:0.43072525 10:0.15313222 11:-1.0931786 12:0.56145102 13:0.21699975 14:-0.97893536 15:0.50423539 16:0.36427513 17:-0.6994164 18:0.37910622 21:0.17 24:0.34 25:0.16819383 26:-0.11358798 27:0.3203021 28:0.33638811 29:-0.22717668 30:0.30060339 31:0.36904684 32:-0.3704536 33:0.32192475 34:0.42164159 35:-0.683204 36:0.55919516 #
7.5781347313206248728079117427114 2:-1.33 3:0.12 5:-1.33 6:0.30000001 7:8.6430067e-05 8:-1.1511285 9:0.40909967 10:0.00017299599 11:-0.97225642 12:0.51819998 13:-0.11170928 14:-0.91970724 15:0.63921905 16:-0.35045108 17:-1.0032998 18:0.86872452 21:0.17 24:0.34 25:-0.052075144 26:-0.19651473 27:0.32812577 28:-0.10415056 29:-0.39302981 30:0.31625044 31:-0.1357014 32:-0.49375701 33:0.39565429 34:0.0012444169 35:-0.65130746 36:0.55966949 #
4.7281613601768759380661322211381 2:-1.33 3:0.12 5:-1.33 6:0.30000001 7:-0.057850286 8:-1.1685636 9:0.41834947 10:-0.1157007 11:-1.0071242 12:0.53669965 13:-0.18920341 14:-0.88411695 15:0.63234133 16:-0.32325903 17:-0.74148929 18:0.65283453 21:0.17 24:0.34 25:-0.17215364 26:-0.13052887 27:0.31353247 28:-0.34430796 29:-0.26105922 30:0.28706425 31:-0.29614842 32:-0.4416776 33:0.35095847 34:-0.15941717 35:-0.97138524 36:0.50895351 #
-14.662254067791318234981190471444 2:-1.33 3:0.12 5:-1.33 6:0.30000001 7:-0.079568423 8:-1.1353281 9:0.32977057 10:-0.15913641 11:-0.94066143 12:0.35954115 13:-0.20655449 14:-0.82483828 15:0.39678612 16:-0.25383851 17:-0.65602005 18:0.62768656 21:0.17 24:0.34 25:-0.089965768 26:-0.19124064 27:0.37883928 28:-0.17993248 29:-0.38248256 30:0.41767731 31:-0.32717282 32:-0.55539471 33:0.48674709 34:-0.70724058 35:-0.96901095 36:0.64798248 #
6.5504415388071395298652532801498 2:-1.33 3:0.12 5:-1.33 6:0.30000001 7:0.1282299 8:-1.1220766 9:0.36609536 10:0.256459 11:-0.91415948 12:0.43219084 13:0.3875331 14:-0.90588987 15:0.58569086 16:0.70994377 17:-0.87973589 18:0.90262049 21:0.17 24:0.34 25:0.099604875 26:-0.19834611 27:0.35644901 28:0.19921011 29:-0.39669254 30:0.37289685 31:0.25377935 32:-0.49496928 33:0.45581636 34:0.41525626 35:-0.7679494 36:0.55530012 #
-5.5229096486263973275754324276932 2:-1.33 3:0.12 5:-1.33 6:0.30000001 7:-0.185919 8:-1.3105117 9:0.34229499 10:-0.37183794 11:-1.2910219 12:0.38458985 13:-0.4090057 14:-1.1652423 15:0.49953473 16:-0.28980801 17:-1.0868952 18:0.5696761 21:0.17 24:0.34 25:0.015761457 26:-0.20198141 27:0.35664505 28:0.031522732 29:-0.40396339 30:0.37328935 31:-0.088941559 32:-0.53950238 33:0.39468992 34:-0.44127584 35:-0.8738184 36:0.48192152 #
8.7204718142829662497206300031394 2:-1.33 3:0.12 5:-1.33 6:0.30000001 7:0.074623428 8:-1.1656749 9:0.38439149 10:0.14924663 11:-1.0013509 12:0.46878341 13:0.17946443 14:-0.80466318 15:0.55852687 16:0.25663981 17:-0.31979972 18:0.75465167 21:0.17 24:0.34 25:0.026685594 26:-0.095718078 27:0.53394324 28:0.053370778 29:-0.19143546 30:0.72788668 31:0.21125741 32:-0.23894595 33:0.80537945 34:0.39866534 35:-0.12502405 36:0.65223086 #
-0.53511520437825288443178806119249 2:-1.33 3:0.12 5:-1.33 6:0.30000001 7:0.12612931 8:-1.1780227 9:0.37840068 10:0.25225839 11:-1.0260447 12:0.45680183 13:0.18314382 14:-0.85996974 15:0.463934 16:-0.045087371 17:-0.49068785 18:0.36501047 21:0.17 24:0.34 25:0.024286343 26:-0.21185908 27:0.3858417 28:0.048572775 29:-0.42371747 30:0.43168232 31:0.20496628 32:-0.51084369 33:0.46227205 34:0.37434176 35:-0.59891534 36:0.50047028 #
-4.4330389803462493247820930264425 2:-1.33 3:0.12 5:-1.33 6:0.30000001 7:0.064438 8:-1.1127806 9:0.3296898 10:0.12887552 11:-0.89556962 12:0.35937953 13:0.26814359 14:-0.87004822 15:0.45355955 16:0.48300162 17:-0.94167739 18:0.52140993 21:0.17 24:0.34 25:0.015047973 26:-0.064235911 27:0.50963646 28:0.030095903 29:-0.12847154 30:0.67927283 31:0.090292461 32:-0.23454052 33:0.65032887 34:0.17833515 35:-0.40293205 36:0.34942752 #
4.0695469494374494345834136765916 2:-1.33 3:0.12 5:-1.33 6:0.30000001 7:0.0013430016 8:-1.1247535 9:0.34670246 10:0.002686003 11:-0.91950727 12:0.39340493 13:0.12487165 14:-0.74121624 15:0.4501954 16:0.47515455 17:-0.29909024 18:0.60734785 21:0.17 24:0.34 25:0.13622485 26:-0.02528698 27:0.4928419 28:0.27244949 29:-0.050574575 30:0.64568365 31:0.33707914 32:-0.13375613 33:0.63394547 34:0.30123076 35:-0.37968311 36:0.6462332 #
-7.254672909909953837370721885236 2:-1.33 3:0.12 5:-1.33 6:0.30000001 7:0.040340085 8:-1.1610988 9:0.3143042 10:0.08068008 11:-0.99219799 12:0.32860851 13:0.14351055 14:-0.81678182 15:0.34695682 16:0.27098805 17:-0.43058953 18:0.39495033 21:0.17 24:0.34 25:0.11070251 26:-0.15676765 27:0.28557885 28:0.22140546 29:-0.31353611 30:0.23115671 31:0.22965743 32:-0.4505465 33:0.38855389 34:-0.036708046 35:-0.33450285 36:0.72280961 #
-7.9241710873451900454256247030571 2:-1.33 3:0.12 5:-1.33 6:0.30000001 7:-0.14701702 8:-1.1719096 9:0.35068566 10:-0.29403353 11:-1.0138239 12:0.40137133 13:-0.29666209 14:-0.82953197 15:0.41181716 16:-0.2237073 17:-0.38956288 18:0.42927128 21:0.17 24:0.34 25:-0.072452478 26:-0.12696759 27:0.43379045 28:-0.14490537 29:-0.25393525 30:0.52758062 31:-0.20103946 32:-0.29636467 33:0.72105652 34:-0.29753605 35:-0.29801351 36:1.0909609 #
2.0588134311203742932150362321408 2:-1.33 3:0.12 5:-1.33 6:0.30000001 7:-0.060869835 8:-1.179842 9:0.22471833 10:-0.12173966 11:-1.0296845 12:0.14943659 13:-0.075746655 14:-0.86380202 15:0.26024112 16:0.0043475325 17:-0.51365829 18:0.64363545 21:0.17 24:0.34 25:-0.026297415 26:-0.15290807 27:0.44996116 28:-0.052594963 29:-0.30581591 30:0.55992192 31:-0.0070206877 32:-0.41782862 33:0.65692812 34:0.030781612 35:-0.47737545 36:0.74536347 #
0.23951428035758931534005000685283 2:-1.33 3:0.12 5:-1.33 6:0.30000001 7:0.087753624 8:-1.1689121 9:0.34772855 10:0.17550692 11:-1.0078304 12:0.39545706 13:0.25755429 14:-0.86496913 15:0.40288568 16:0.43743679 17:-0.57842475 18:0.38709655 21:0.17 24:0.34 25:0.0066895545 26:-0.1837627 27:0.27479529 28:0.013378895 29:-0.36752564 30:0.20959005 31:0.11504947 32:-0.46924287 33:0.26739043 34:0.23722762 35:-0.39222789 36:0.40330714 #
10.24692415260275524246935674455 2:-1.33 3:0.12 5:-1.33 6:0.30000001 7:0.043850698 8:-1.2012547 9:0.46615714 10:0.08770147 11:-1.0725049 12:0.63231516 13:0.095537782 14:-0.95886773 15:0.78937632 16:0.069386378 17:-0.71161973 18:1.1858257 21:0.17 24:0.34 25:0.014865413 26:0.036516342 27:0.53080773 28:0.029730979 29:0.073032424 30:0.72161537 31:0.019862816 32:-0.10201747 33:0.78840256 34:0.010064797 35:-0.64649916 36:0.9110772 #
15.311668831345613739358668681234 2:-1.33 3:0.12 5:-1.33 6:0.30000001 7:0.11509155 8:-1.1418276 9:0.35012785 10:0.23018277 11:-0.953659 12:0.40025559 13:0.074356295 14:-0.7886973 15:0.49679726 16:-0.31954613 17:-0.83185303 18:0.59384239 21:0.17 24:0.34 25:-0.0034673978 26:-0.17656533 27:0.42106956 28:-0.0069348216 29:-0.35313013 30:0.50213844 31:-0.039749458 32:-0.47587571 33:0.55867434 34:-0.070012428 35:-0.79112941 36:0.49164933 #
0.20687929592151277358169636499952 2:-1.33 3:0.12 5:-1.33 6:0.30000001 7:0.091553874 8:-1.1385416 9:0.33364967 10:0.18310735 11:-0.94709563 12:0.36729932 13:0.29216409 14:-0.82443523 15:0.40513539 16:0.47506747 17:-0.49891046 18:0.60318643 21:0.17 24:0.34 25:-0.04443505 26:-0.24665962 27:0.32968453 28:-0.088869587 29:-0.49332014 30:0.31936771 31:0.026542412 32:-0.62759507 33:0.52630484 34:0.49525401 35:-0.40579501 36:0.74675083 #
-10.811429676504438646134076407179 2:-1.33 3:0.12 5:-1.33 6:0.30000001 7:-0.059314303 8:-1.0821006 9:0.32260284 10:-0.11862833 11:-0.83420593 12:0.34520561 13:-0.29953969 14:-0.6848284 15:0.40313056 16:-0.68937898 17:-0.54873538 18:0.52740711 21:0.17 24:0.34 25:0.13618189 26:-0.1172021 27:0.4708668 28:0.27236426 29:-0.23440266 30:0.60173374 31:0.21500471 32:-0.47581437 33:0.53202403 34:-0.099303655 35:-1.0754746 36:0.36884987 #
5.9785557062834939756612584460527 2:-1.33 3:0.12 5:-1.33 6:0.30000001 7:-0.14172772 8:-1.1943704 9:0.37940052 10:-0.2834551 11:-1.0587432 12:0.45880136 13:-0.23083057 14:-0.90499908 15:0.49305892 16:-0.07886719 17:-0.60126346 18:0.65135562 21:0.17 24:0.34 25:0.017127318 26:-0.10168096 27:0.51063222 28:0.034254566 29:-0.20336106 30:0.68126458 31:0.092834979 32:-0.30222273 33:0.75967491 34:0.19034137 35:-0.5735985 36:1.0473404 #
-8.5084854941651357762566476594657 2:-1.33 3:0.12 5:-1.33 6:0.30000001 7:0.018418215 8:-1.1211752 9:0.34947512 10:0.036836322 11:-0.91235119 12:0.39895016 13:0.036152489 14:-0.71509582 15:0.44087636 16:0.017022371 17:-0.19427104 18:0.52703398 21:0.17 24:0.34 25:0.044979282 26:-0.16642289 27:0.43005878 28:0.089958295 29:-0.33284596 30:0.5201171 31:0.27125192 32:-0.29538462 33:0.59404832 34:0.70736068 35:-0.15068793 36:0.71987247 #
-10.859728146883290023083645792212 2:-1.33 3:0.12 5:-1.33 6:0.30000001 7:-0.028866941 8:-1.1022666 9:0.31678748 10:-0.057733972 11:-0.87453187 12:0.33357489 13:-0.044533215 14:-0.67843509 15:0.35763708 16:0.024819287 17:-0.27794078 18:0.49646702 21:0.17 24:0.34 25:0.024451112 26:-0.19874369 27:0.36872378 28:0.048902281 29:-0.39748767 30:0.39744645 31:0.090258896 32:-0.6037432 33:0.47757128 34:0.22347385 35:-1.1134759 36:0.68653697 #
-5.6575936689321046912937163142487 2:-1.33 3:0.12 5:-1.33 6:0.30000001 7:-0.0059247729 8:-1.1166904 9:0.40302962 10:-0.011849535 11:-0.903373 12:0.50605959 13:-0.044047885 14:-0.79066658 15:0.49983358 16:-0.14504156 17:-0.70527065 18:0.36192605 21:0.17 24:0.34 25:-0.019591689 26:-0.20503071 27:0.37552777 28:-0.039183121 29:-0.41006023 30:0.41105452 31:0.078136526 32:-0.56635708 33:0.50517786 34:-0.16776073 35:-0.51832533 36:0.5156635 #
2.318040096380814318877128243912 2:-1.33 3:0.12 5:-1.33 6:0.30000001 7:-0.057524931 8:-1.1509581 9:0.40616176 10:-0.11504968 11:-0.97191632 12:0.51232409 13:-0.22146636 14:-0.9060151 15:0.57787544 16:-0.45981491 17:-0.78064412 18:0.70370287 21:0.17 24:0.34 25:-0.1898656 26:-0.1139695 27:0.38681632 28:-0.37973163 29:-0.22794002 30:0.43363157 31:-0.44025677 32:-0.31427544 33:0.5173744 34:-0.2399686 35:-0.47427806 36:0.62513494 #
-11.863081782041918543768588278908 2:-1.33 3:0.12 5:-1.33 6:0.30000001 7:-0.084281661 8:-1.1592464 9:0.36606476 10:-0.16856314 11:-0.98849642 12:0.4321298 13:-0.17614847 14:-0.88150638 15:0.49394253 16:-0.16410692 17:-0.64222795 18:0.59871596 21:0.17 24:0.34 25:0.16355053 26:-0.054513011 27:0.42468354 28:0.3271012 29:-0.10902631 30:0.50936651 31:0.31208849 32:-0.26649716 33:0.52155006 34:0.17131492 35:-0.62408191 36:0.40133822 #
6.932850559143025392927484062966 2:-1.33 3:0.12 5:-1.33 6:0.30000001 7:-0.0060288142 8:-1.3957403 9:0.52776206 10:-0.012057634 11:-1.4614853 12:0.75552404 13:-0.10524356 14:-1.2677745 15:0.7915985 16:-0.28476861 17:-0.88973802 18:0.68332964 21:0.17 24:0.34 25:-0.055500645 26:-0.19241351 27:0.37801075 28:-0.1110016 29:-0.3848269 30:0.41602048 31:-0.10181739 32:-0.58000922 33:0.4594892 34:-0.10561685 35:-1.098482 36:0.60390723 #
-5.5731646751050245569558683200739 2:-1.33 3:0.12 5:-1.33 6:0.30000001 7:-0.10229161 8:-1.3507899 9:0.51405114 10:-0.20458283 11:-1.3715743 12:0.7281037 13:-0.22408892 14:-1.2284365 15:0.65319377 16:-0.13106167 17:-1.0864006 18:0.37601057 21:0.17 24:0.34 25:-0.080611348 26:-0.16466665 27:0.37503597 28:-0.16122299 29:-0.32933426 30:0.41007102 31:-0.21764055 32:-0.50173926 33:0.45099008 34:-0.27746981 35:-0.96335697 36:0.55485177 #
2.2261376815146798335831590520684 2:-1.33 3:0.12 5:-1.33 6:0.30000001 7:0.030957671 8:-1.1266713 9:0.31150529 10:0.061915323 11:-0.92334729 12:0.32301006 13:0.1828991 14:-0.87236106 15:0.44093809 16:0.43846735 17:-0.88551748 18:0.5074935 21:0.17 24:0.34 25:-0.10102596 26:-0.13113695 27:0.39398885 28:-0.20205209 29:-0.26227412 30:0.44797695 31:-0.15909834 32:-0.47230983 33:0.41851413 34:0.043276213 35:-0.8816182 36:0.31947467 #
-1.6107313019822859789798030760721 2:-1.33 3:0.12 5:-1.33 6:0.30000001 7:0.10174727 8:-1.1807444 9:0.37099752 10:0.20349424 11:-1.0314884 12:0.44199541 13:0.26472551 14:-0.84897572 15:0.48665977 16:0.41774055 17:-0.40793836 18:0.58516467 21:0.17 24:0.34 25:0.11989934 26:-0.059822883 27:0.49476835 28:0.23979908 29:-0.1196464 30:0.64953649 31:0.28133404 32:-0.12619218 33:0.80790478 34:0.40570691 35:-0.17257519 36:1.1898477 #
-7.3385167850580179660369140037801 2:-1.33 3:0.12 5:-1.33 6:0.30000001 7:-0.039573099 8:-1.0774559 9:0.31311235 10:-0.07914602 11:-0.82491493 12:0.32622439 13:-0.1361948 14:-0.71096587 15:0.38917249 16:-0.027820451 17:-0.69241661 18:0.43902165 21:0.17 24:0.34 25:-0.064854302 26:-0.19106002 27:0.37441689 28:-0.12970875 29:-0.38211927 30:0.40883312 31:-0.13553929 32:-0.47649604 33:0.48695108 34:0.16314018 35:-0.51545137 36:0.64998323 #
4.6886352981688270702420595625881 2:-1.33 3:0.12 5:-1.33 6:0.30000001 7:0.15736602 8:-1.2364328 9:0.42396259 10:0.31473196 11:-1.1428599 12:0.54792565 13:0.25874001 14:-1.0478642 15:0.54163146 16:0.033953875 17:-0.93017238 18:0.36417085 21:0.17 24:0.34 25:0.048961475 26:-0.19174348 27:0.38717097 28:0.097923256 29:-0.38348603 30:0.43434089 31:0.069760054 32:-0.56312752 33:0.43283525 34:-0.019784272 35:-1.0666844 36:0.46180981 #
-3.9138146531275115336256931186654 2:-1.33 3:0.12 5:-1.33 6:0.30000001 7:0.11369178 8:-1.1576326 9:0.33340144 10:0.22738326 11:-0.98527092 12:0.36680275 13:0.1326285 14:-0.8081063 15:0.41260403 16:-0.2053971 17:-0.47108576 18:0.50036389 21:0.17 24:0.34 25:-0.097768374 26:-0.070166536 27:0.50612509 28:-0.19553711 29:-0.14033355 30:0.67225003 31:-0.24280603 32:-0.076066501 33:0.87971312 34:-0.3723006 35:0.083485804 36:1.3870022 #
9.2031619091866296855641849106178 2:-1.33 3:0.12 5:-1.33 6:0.30000001 7:-0.018595293 8:-1.1300678 9:0.33765081 10:-0.037190542 11:-0.93014038 12:0.37530157 13:-0.028778866 14:-0.7344411 15:0.3877362 16:0.0035187353 17:-0.22628909 18:0.4219026 21:0.17 24:0.34 25:0.0043258597 26:0.018210744 27:0.55012912 28:0.0086517259 29:0.036421366 30:0.76025826 31:0.009080952 32:0.0082708169 33:0.90137482 34:-0.020133827 35:-0.029581649 36:1.2351849 #
-0.4372797423677750594528390593041 2:-1.33 3:0.12 5:-1.33 6:0.30000001 7:-0.085967399 8:-1.2408586 9:0.5054062 10:-0.17193496 11:-1.151704 12:0.7108137 13:-0.22770044 14:-1.001137 15:0.78382176 16:-0.26459208 17:-0.66998327 18:0.93664831 21:0.17 24:0.34 25:-0.11211914 26:-0.16045557 27:0.386237 28:-0.22423849 29:-0.32091147 30:0.43247312 31:-0.20605308 32:-0.44165373 33:0.45120305 34:-0.079543062 35:-0.69023335 36:0.37259313 #
-8.3037057522006296750305409659632 2:-1.33 3:0.12 5:-1.33 6:0.30000001 7:-0.095100619 8:-1.1388412 9:0.32426438 10:-0.19020075 11:-0.94768977 12:0.34852862 13:-0.23439756 14:-0.7516582 15:0.37622482 16:-0.37677079 17:-0.24333443 18:0.41745362 21:0.17 24:0.34 25:-0.15929364 26:-0.11448345 27:0.39171439 28:-0.31858632 29:-0.22896731 30:0.44342783 31:-0.49252304 32:-0.29575822 33:0.48236907 34:-0.93888414 35:-0.4443838 36:0.58729583 #
6.139417023017375463211919850437 2:-1.33 3:0.12 5:-1.33 6:0.30000001 7:0.0048058322 8:-1.4557346 9:0.42653844 10:0.0096116541 11:-1.5814743 12:0.55307764 13:-0.042508192 14:-1.4598418 15:0.60725194 16:-0.12661605 17:-1.3514401 18:0.40528002 21:0.17 24:0.34 25:0.044677358 26:-0.20161703 27:0.37840122 28:0.089354955 29:-0.40323314 30:0.41680148 31:0.035838567 32:-0.58639932 33:0.46648327 34:-0.11013014 35:-1.0693452 36:0.60113037 #
-3.0616845682428723840473594464129 2:-1.33 3:0.12 5:-1.33 6:0.30000001 7:-0.031106623 8:-1.1922078 9:0.45072705 10:-0.06221335 11:-1.0544149 12:0.60145456 13:0.056543857 14:-1.140274 15:0.75362158 16:0.22207028 17:-1.3754435 18:0.57002288 21:0.17 24:0.34 25:0.051490359 26:-0.20404509 27:0.34391278 28:0.10298093 29:-0.40808925 30:0.34782448 31:0.057145491 32:-0.59522188 33:0.41604573 34:-0.039817519 35:-1.1136144 36:0.6213479 #
4.3210809320125251886679507151712 2:-1.33 3:0.12 5:-1.33 6:0.30000001 7:0.094460413 8:-1.284568 9:0.47336304 10:0.18892077 11:-1.2391278 12:0.64672673 13:0.17205344 14:-1.0568467 15:0.66713583 16:0.12958185 17:-0.66198933 18:0.71444374 21:0.17 24:0.34 25:-0.019429853 26:0.0072781313 27:0.52032077 28:-0.038859624 29:0.014556169 30:0.70064163 31:0.041976511 32:-0.087386191 33:0.80893344 34:0.21164452 35:-0.43390569 36:0.93783915 #
-0.99590503136829144903430233171093 2:-1.33 3:0.12 5:-1.33 6:0.30000001 7:0.046105314 8:-1.2471044 9:0.53706563 10:0.092210494 11:-1.1642003 12:0.77413201 13:-0.16914541 14:-1.1412681 15:0.71702093 16:-0.50983113 17:-1.2089143 18:0.51156646 21:0.17 24:0.34 25:-0.024870718 26:-0.18212889 27:0.38621441 28:-0.049741462 29:-0.36425778 30:0.43242788 31:-0.084928967 32:-0.54382318 33:0.46385717 34:-0.25300321 35:-0.97941077 36:0.50765169 #
-8.6642388360425375282147797406651 2:-1.33 3:0.12 5:-1.33 6:0.30000001 7:0.037950568 8:-1.1676497 9:0.39092246 10:0.07590092 11:-1.0052959 12:0.48184547 13:0.014307362 14:-0.85617512 15:0.53143257 16:-0.20150195 17:-0.38580108 18:0.62900728 21:0.17 24:0.34 25:0.023631893 26:-0.13359755 27:0.50123596 28:0.047263924 29:-0.26719415 30:0.66247207 31:-0.13257568 32:-0.29047456 33:0.7151131 34:-0.29385644 35:-0.22900558 36:0.42698589 #
-1.7690156753707113601592482154956 2:-1.33 3:0.12 5:-1.33 6:0.30000001 7:0.00013980406 8:-1.1472942 9:0.46978134 10:0.00027966686 11:-0.96458679 12:0.63956428 13:0.016397821 14:-0.86821526 15:0.75180554 16:0.11803354 17:-0.79420316 18:0.93587792 21:0.17 24:0.34 25:0.059618667 26:-0.12151889 27:0.47601965 28:0.1192373 29:-0.24303721 30:0.61203921 31:0.10862851 32:-0.42591223 33:0.69453728 34:0.075553454 35:-0.94594842 36:0.97087628 #
6.2459996944181597200440592132509 2:-1.33 3:0.12 5:-1.33 6:0.30000001 7:-0.035676189 8:-1.3149256 9:0.52266067 10:-0.071352251 11:-1.299849 12:0.74532169 13:0.094407625 14:-1.2576288 15:0.81540316 16:0.35047573 17:-1.1453395 18:0.72993177 21:0.17 24:0.34 25:0.0083937086 26:-0.16651812 27:0.41858205 28:0.016787488 29:-0.33303639 30:0.49716353 31:0.061680812 32:-0.50024611 33:0.60215437 34:0.1917123 35:-0.96043015 36:0.86182141 #
5.5647331130821546807396771328058 2:-1.33 3:0.12 5:-1.33 6:0.30000001 7:-0.084135585 8:-1.1229411 9:0.31356496 10:-0.16827072 11:-0.91589463 12:0.32712969 13:-0.046686158 14:-0.78514618 15:0.28187454 16:0.10960332 17:-0.29976568 18:0.15869094 21:0.17 24:0.34 25:0.087794937 26:-0.09069933 27:0.44276366 28:0.17559008 29:-0.18139943 30:0.54552722 31:0.21699063 32:-0.32663772 33:0.69751579 34:0.41485769 35:-0.47021762 36:0.70364064 #
-14.047431607123465724384914210532 2:-1.33 3:0.12 5:-1.33 6:0.30000001 7:0.045958474 8:-1.2846665 9:0.5079757 10:0.091916651 11:-1.2393273 12:0.71595216 13:0.091433845 14:-1.2553226 15:0.85268128 16:0.037453983 17:-1.1590461 18:0.81964111 21:0.17 24:0.34 25:0.1145805 26:-0.185635 27:0.35435343 28:0.22916158 29:-0.37127134 30:0.36870587 31:0.2629557 32:-0.53817469 33:0.45488852 34:0.42356583 35:-0.96676135 36:0.64571095 #
-6.054983063218653427384197129868 2:-1.33 3:0.12 5:-1.33 6:0.30000001 7:-0.029808979 8:-1.1762233 9:0.45152155 10:-0.059618231 11:-1.0224448 12:0.60304415 13:-0.12883627 14:-0.91955858 15:0.80170977 16:-0.23309037 17:-0.86031127 18:1.0506771 21:0.17 24:0.34 25:0.052484673 26:-0.23332489 27:0.31303227 28:0.10496973 29:-0.46664932 30:0.2860631 31:0.076129153 32:-0.63358802 33:0.33879465 34:-0.0050807134 35:-1.0631422 36:0.5299719 #
6.4534687807887785027105564950034 2:-1.33 3:0.12 5:-1.33 6:0.30000001 7:-0.019601058 8:-1.2890946 9:0.48477519 10:-0.039202042 11:-1.2481941 12:0.66955066 13:-0.096583672 14:-1.0598129 15:0.67661333 16:-0.24708828 17:-0.63718015 18:0.96962774 21:0.17 24:0.34 25:-0.0086170677 26:-0.1807377 27:0.43872371 28:-0.017234443 29:-0.3614741 30:0.53744721 31:0.072782747 32:-0.47076139 33:0.66562831 34:0.23926115 35:-0.63791674 36:0.81308305 #
7.2355839768875540585213457234204 2:-1.33 3:0.12 5:-1.33 6:0.30000001 7:0.083479248 8:-1.1421582 9:0.33509576 10:0.16695806 11:-0.95432293 12:0.3701916 13:0.19085534 14:-0.77704293 15:0.37850416 16:0.34588543 17:-0.40902311 18:0.40711007 21:0.17 24:0.34 25:0.2251139 26:-0.074264146 27:0.35784966 28:0.45022807 29:-0.1485287 30:0.37569815 31:0.44485876 32:-0.24953417 33:0.46538877 34:0.14540285 35:-0.40960115 36:0.43319511 #
-8.0871784719552461950797805911861 2:-1.33 3:0.12 5:-1.33 6:0.30000001 7:0.0014734111 8:-1.2314262 9:0.46636569 10:0.0029469838 11:-1.1328464 12:0.63273209 13:0.13283831 14:-0.99426556 15:0.65590376 16:0.51317048 17:-0.57258856 18:0.8243714 21:0.17 24:0.34 25:0.09089949 26:-0.15987463 27:0.35332701 28:0.18179937 29:-0.31975025 30:0.36665294 31:0.23871522 32:-0.4251498 33:0.43242192 34:0.37385097 35:-0.57844234 36:0.56324792 #
15.325451982519952665029450145084 2:-1.33 3:0.12 5:-1.33 6:0.30000001 7:0.044435307 8:-1.2688118 9:0.4531858 10:0.088870533 11:-1.2076279 12:0.6063717 13:0.055419117 14:-1.0327864 15:0.5687899 16:0.10115648 17:-0.41214845 18:0.71035141 21:0.17 24:0.34 25:-0.013169004 26:-0.088015772 27:0.49124455 28:-0.026337972 29:-0.17603081 30:0.64248896 31:-0.026126247 32:-0.38967222 33:0.66214508 34:-0.038408909 35:-0.90925163 36:0.6901831 #
-14.097172036959683794066222617403 2:-1.33 3:0.12 5:-1.33 6:0.30000001 7:0.0082221171 8:-1.1231592 9:0.3362073 10:0.01644418 11:-0.91632146 12:0.37241462 13:0.12629201 14:-0.75998557 15:0.57054657 16:0.36911914 17:-0.63345087 18:1.0104209 21:0.17 24:0.34 25:0.024276372 26:-0.14426674 27:0.36702621 28:0.048553105 29:-0.2885339 30:0.39405173 31:0.035052568 32:-0.45382029 33:0.38863158 34:0.0048230835 35:-0.87849218 36:0.50449198 #
2.3485848758490290855149851267925 2:-1.33 3:0.12 5:-1.33 6:0.30000001 7:-0.13484606 8:-1.2334342 9:0.48361021 10:-0.26969278 11:-1.1368575 12:0.66722202 13:-0.2401008 14:-0.96151692 15:0.61374795 16:-0.12625091 17:-0.53719634 18:0.60264844 21:0.17 24:0.34 25:-0.016676607 26:-0.23052922 27:0.36432177 28:-0.033353571 29:-0.46105814 30:0.38864195 31:0.026736997 32:-0.57880169 33:0.46269599 34:0.076745167 35:-1.0063198 36:0.43185246 #
8.4414909784803136005848500644788 2:-1.33 3:0.12 5:-1.33 6:0.30000001 7:-0.041331824 8:-1.1354645 9:0.36471289 10:-0.082663469 11:-0.94093412 12:0.42942607 13:0.0072690523 14:-0.79943746 15:0.52481455 16:0.26413855 17:-0.5653441 18:0.76525146 21:0.17 24:0.34 25:0.095731631 26:-0.10718997 27:0.45840243 28:0.19146341 29:-0.2143801 30:0.57680464 31:0.17974973 32:-0.22525722 33:0.70757616 34:-0.045909055 35:-0.10425435 36:0.88092124 #
15.292478958921133624926369520836 2:-1.33 3:0.12 5:-1.33 6:0.30000001 7:-0.0037890824 8:-1.1577885 9:0.432818 10:-0.007578122 11:-0.98557734 12:0.56563693 13:0.029274598 14:-0.89541245 15:0.78515786 16:0.16072728 17:-1.0864427 18:0.88931465 21:0.17 24:0.34 25:0.0064319093 26:-0.11549404 27:0.42407086 28:0.012863736 29:-0.23098779 30:0.50814146 31:0.039298929 32:-0.29217789 33:0.57217962 34:0.063552164 35:-0.47797045 36:0.77479464 #
-2.5002901956596339516636362532154 2:-1.33 3:0.12 5:-1.33 6:0.30000001 7:-0.081154607 8:-1.1927699 9:0.41595519 10:-0.16230883 11:-1.0555345 12:0.53191113 13:0.039681017 14:-1.0563811 15:0.38749585 16:0.15106748 17:-0.74987859 18:0.4251529 21:0.17 24:0.34 25:-0.029722812 26:-0.16087455 27:0.45471585 28:-0.059445631 29:-0.32174832 30:0.56943101 31:-0.014903477 32:-0.47554028 33:0.57947963 34:-0.0085100122 35:-0.88263822 36:0.38467538 #
-20.584879887806867060362492338754 2:-1.33 3:0.12 5:-1.33 6:0.30000001 7:-0.0041648806 8:-1.2338414 9:0.48345965 10:-0.008329561 11:-1.1376766 12:0.66692036 13:-0.00013899247 14:-0.98987263 15:0.91304201 16:0.22098964 17:-0.88686222 18:0.80363423 21:0.17 24:0.34 25:-0.039283358 26:-0.21702509 27:0.3010104 28:-0.078567058 29:-0.43404993 30:0.26201996 31:-0.05342406 32:-0.540613 33:0.39486238 34:0.1391969 35:-0.70760059 36:0.64141971 #
-9.932873062743372116756290779449 2:-1.33 3:0.12 5:-1.33 6:0.30000001 7:0.0028593661 8:-1.2048117 9:0.5250721 10:0.0057182373 11:-1.079609 12:0.75014633 13:-0.18043044 14:-1.0422605 15:0.74005783 16:-0.4528214 17:-0.84272438 18:0.84854269 21:0.17 24:0.34 25:-0.070747674 26:-0.21371332 27:0.39517379 28:-0.141496 29:-0.42742711 30:0.45034629 31:-0.14603207 32:-0.61707175 33:0.48473522 34:-0.14031367 35:-1.0990163 36:0.62060237 #
8.7762946297688504415646093548276 2:-1.33 3:0.12 5:-1.33 6:0.30000001 7:-0.046882559 8:-1.1384275 9:0.32456627 10:-0.093764953 11:-0.946859 12:0.34913254 13:-0.1506633 14:-0.75655377 15:0.35185868 16:-0.097998194 17:-0.41948479 18:0.31586486 21:0.17 24:0.34 25:-0.018452832 26:-0.1974277 27:0.3700546 28:-0.03690597 29:-0.39485568 30:0.40010831 31:-0.088762596 32:-0.5606783 33:0.39048582 34:-0.43685344 35:-0.95747805 36:0.38914096 #
-16.353595387972791996844534878619 2:-1.33 3:0.12 5:-1.33 6:0.30000001 7:0.01817842 8:-1.2087992 9:0.46686873 10:0.036356773 11:-1.0875956 12:0.63373864 13:0.031932011 14:-0.88119239 15:0.66939223 16:0.051322497 17:-0.34870327 18:0.78506291 21:0.17 24:0.34 25:-0.014289754 26:0.039233215 27:0.52399087 28:-0.028579472 29:0.078466274 30:0.70798171 31:-0.036429495 32:-0.070962235 33:0.80424738 34:-0.091987707 35:-0.22890528 36:0.68117678 #
-13.947653401404821238429576624185 2:-1.33 3:0.12 5:-1.33 6:0.30000001 7:0.12392238 8:-1.3018619 9:0.45378488 10:0.24784471 11:-1.2737185 12:0.60757065 13:0.37807828 14:-1.1603473 15:0.65424085 16:0.55183285 17:-1.0345827 18:0.93804717 21:0.17 24:0.34 25:0.10230903 26:-0.1819413 27:0.35552835 28:0.20461877 29:-0.36388376 30:0.37105554 31:0.2823565 32:-0.54743594 33:0.43389565 34:0.47815588 35:-1.0404146 36:0.62587059 #
3.7794539683900207904798662639223 2:-1.33 3:0.12 5:-1.33 6:0.30000001 7:0.10271048 8:-1.1676049 9:0.35854116 10:0.20542066 11:-1.0052146 12:0.41708255 13:0.13752894 14:-0.85400146 15:0.4522686 16:-0.072390303 17:-0.53255814 18:0.57732046 21:0.17 24:0.34 25:-0.19081376 26:-0.08129146 27:0.4668957 28:-0.38162765 29:-0.16258353 30:0.59379113 31:-0.23137328 32:-0.26069927 33:0.76928985 34:0.18236856 35:-0.21804991 36:0.77897048 #
-10.742373327387635839613722055219 2:-1.33 3:0.12 5:-1.33 6:0.30000001 7:-0.044862267 8:-1.2131456 9:0.47354555 10:-0.089724272 11:-1.0962875 12:0.64709216 13:-0.15602024 14:-0.94479167 15:0.64290589 16:-0.34277835 17:-0.53570616 18:0.46641099 21:0.17 24:0.34 25:-0.11199026 26:-0.16688462 27:0.36639753 28:-0.22398135 29:-0.33377087 30:0.39279407 31:-0.33220482 32:-0.43185729 33:0.37646577 34:-0.58927113 35:-0.48118651 36:0.40262589 #
-5.0681889802134625355733987817075 2:-1.33 3:0.12 5:-1.33 6:0.30000001 7:-0.11977813 8:-1.2172388 9:0.38197538 10:-0.23955613 11:-1.1044767 12:0.46395099 13:-0.37100646 14:-0.97208989 15:0.38426965 16:-0.46826887 17:-0.62375778 18:0.29314622 21:0.17 24:0.34 25:-0.14207716 26:-0.1002284 27:0.36611021 28:-0.28415433 29:-0.20045717 30:0.39221954 31:-0.29992738 32:-0.29739058 33:0.41603735 34:-0.20150907 35:-0.3202517 36:0.31002092 #
0.20083263299117595779286205015524 2:-1.33 3:0.12 5:-1.33 6:0.30000001 7:-0.073669985 8:-1.1672841 9:0.43422154 10:-0.1473399 11:-1.0045682 12:0.56844378 13:-0.1786817 14:-0.82756633 15:0.62815583 16:-0.21907385 17:-0.41738722 18:0.78981251 21:0.17 24:0.34 25:-0.093949258 26:-0.056773424 27:0.49835387 28:-0.18789861 29:-0.11354707 30:0.6567077 31:-0.32640177 32:-0.15065697 33:0.6554879 34:-0.56232631 35:-0.1181762 36:0.45156494 #
-10.432675016667195322384031896945 2:-1.33 3:0.12 5:-1.33 6:0.30000001 7:-0.089670509 8:-1.2684935 9:0.47466397 10:-0.17934115 11:-1.206986 12:0.64932841 13:-0.2471628 14:-1.1149828 15:0.87128305 16:-0.17431577 17:-1.0293857 18:0.71609455 21:0.17 24:0.34 25:-0.032799501 26:-0.18372785 27:0.29966608 28:-0.065599091 29:-0.36745498 30:0.25933129 31:-0.070951693 32:-0.52325249 33:0.3106527 34:-0.0041630864 35:-0.90083218 36:0.66952157 #
-3.8218409387129361753920875344193 2:-1.33 3:0.12 5:-1.33 6:0.30000001 7:-0.14843072 8:-1.2309051 9:0.36739314 10:-0.29686102 11:-1.1318108 12:0.43478641 13:-0.44375953 14:-1.1011348 15:0.49061283 16:-0.66812646 17:-1.0689625 18:0.68535239 21:0.17 24:0.34 25:-0.16164464 26:-0.081811287 27:0.41144207 28:-0.32328954 29:-0.16362296 30:0.48288348 31:-0.40154541 32:-0.30904272 33:0.54360223 34:-0.59894913 35:-0.81005365 36:0.6684972 #
